807 60
416 0.38670832 0.19187383 -0.011541442 -0.147697 0.1434227 0.22688663 -0.097165346 -0.09087806 -0.048889425 -0.26011732 -0.044875573 -0.083835654 -0.17389254 -0.1969043 0.088998765 -0.1528412 0.1741368 -0.06690582 -0.25430217 -0.045705114 0.016148586 -0.008364679 0.09869862 -0.095557466 -0.22062394 -0.11288846 -0.24737994 -0.29765654 -0.33702096 -0.41370285 0.41191104 0.04824201 -0.048014253 0.16194122 0.06807941 -0.44687206 0.014242051 -0.21242753 -0.2173544 0.043800365 0.33744618 -0.053851254 -0.55023247 -0.010192454 0.32334164 -0.18482976 0.14882098 0.10380002 0.015903147 -0.134835 0.034672547 -0.09360328 -0.03796968 0.1364248 -0.28403768 0.39872324 -0.12964779 -0.28530407 0.11849839 0.11076097
188 0.4490803 0.15096715 0.02197661 -0.2574092 0.090558276 0.3335849 0.05219572 -0.2507938 -0.03452405 -0.25543764 -0.09213546 -0.04545343 -0.059864298 -0.16808887 0.16039097 -0.2510806 0.1388071 -0.10678646 -0.34804177 -0.06598353 0.12160258 -0.15906557 0.017409584 -0.10180449 -0.15112521 -0.20954774 0.021663025 -0.3243062 -0.36465618 -0.19676803 0.25136027 0.012768713 -0.046843283 0.14531112 0.11047919 -0.34651038 -0.10849419 -0.1665442 -0.17634954 0.030864988 0.21543522 -0.015446199 -0.54196435 -0.016710375 0.3753654 -0.17185847 0.28578228 -0.046742745 -0.11101061 -0.24294674 0.28126758 -0.21093747 0.14667708 0.10605403 -0.18974817 0.43011838 -0.18633321 -0.3480324 0.12024178 -0.04038851
531 0.041230753 0.024680344 -0.047819797 -0.18374778 0.16625999 -0.09565295 -0.057505436 -0.1833398 0.124800295 -0.21986683 0.045152612 0.23146914 -0.26203644 0.24998286 0.018324966 -0.11384912 -0.13028716 0.1525081 0.10234025 0.25503758 0.06936076 -0.123696454 0.3679686 0.27585262 -0.10358784 -0.029163027 -0.20548557 -0.28099555 -0.027034655 -0.17132658 0.18994948 -0.0189215 0.09378265 -0.10609082 0.3983276 -0.46949455 0.13545191 0.046402678 -0.08938974 0.04892527 -0.056965027 0.38037273 -0.38666874 -0.18903942 0.048690278 0.19085191 0.33562064 -0.21644147 0.08102888 0.094066575 0.2684448 -0.26049474 0.00035166898 0.23663737 -0.11733742 0.40597248 -0.35625568 -0.16766718 0.18673953 0.017234666
2 0.17396393 0.024361435 0.18350926 -0.06773561 0.17046307 0.08023331 -0.1183327 -0.26116306 -0.09064194 0.07733127 -0.22098804 -0.2124027 -0.06897587 -0.086334854 0.17049597 -0.09758877 0.021242416 -0.072807476 -0.3642208 0.071550325 -0.13700618 -0.12326878 0.017996123 0.036057618 -0.30591866 -0.054048024 0.08600482 -0.4705971 -0.19253252 -0.31592476 0.47318146 -0.03517931 0.070408806 0.4712994 0.10877676 -0.46619597 0.2086457 -0.087466516 0.12335724 -0.15219288 0.26993492 -0.08197595 -0.40010428 0.07320965 0.023731887 -0.11529868 0.20658967 -0.13582058 -0.14105454 0.05280516 -0.10072343 -0.12800024 -0.12726393 0.04183088 -0.17133278 0.5103858 -0.025163798 -0.3787827 0.09355503 0.18858023
604 0.21579301 0.04529816 -0.0648191 -0.11827065 0.20139961 0.22572933 -0.08496841 -0.16475724 -0.014619008 -0.28277504 0.19084603 0.033542275 -0.21129142 -0.058113884 -0.004879538 -0.25049648 0.025672548 0.104376905 -0.35522425 -0.10840729 0.02393609 -0.17012744 0.13210765 0.12718588 -0.09923283 -0.027880115 -0.09425266 -0.3190601 -0.39065626 -0.41992515 0.24547766 -0.035429336 -0.11422082 0.09788667 0.16775672 -0.5603028 -0.07497525 -0.2534359 -0.18903269 0.062051505 0.4185676 0.04474728 -0.47931275 -0.0873228 0.16550148 -0.09835706 0.35383338 0.1405127 -0.078207634 0.122478195 0.11786589 -0.21886876 -0.12353783 -0.028975641 -0.19942375 0.32101104 -0.1480759 -0.120159045 0.105363406 0.13132784
413 0.043008175 -0.2100323 0.014143696 0.100171074 0.2337022 -0.10045652 -0.039710507 -0.0049622846 0.08121705 -0.10042009 0.22667114 -0.056819312 -0.061724715 -0.044083823 0.28126094 -0.12067516 -0.096390665 0.063856274 -0.091688 0.030308247 0.054567102 -0.12049196 0.08588002 -0.0061275437 -0.004139933 0.021997124 -0.0834948 -0.2562372 -0.1201917 -0.07201613 0.21254323 0.09716583 0.15051727 -0.00048244762 0.21591651 -0.34976423 -0.08598363 -0.12615164 -0.17403302 -0.15298581 0.11282752 0.16096203 -0.34387788 0.040652066 0.124129996 0.13113594 0.15746333 -0.4021688 0.02642037 0.15924048 -0.1707069 -0.2553275 -0.089489534 0.24547814 -0.16880557 0.51467335 0.032367826 -0.08798462 -0.13617644 0.17048952
733 0.18593106 -0.053393528 -0.20979223 -0.10261114 0.45537513 -0.103388 -0.11059582 0.041732676 -0.06758844 0.108807035 -0.3952827 0.17254648 -0.026394134 -0.19822338 0.34135756 -0.266888 0.06647911 -0.05549311 -0.09937681 0.17064884 0.0058885342 0.12998848 0.06491896 -0.2735173 -0.0448829 0.0832472 0.063035056 -0.03874303 0.050319403 -0.25893292 0.033436324 -0.1564072 -0.082868196 0.26894993 0.30685964 -0.9817808 -0.08733579 0.18930794 -0.069038205 0.081841305 0.38218418 0.29499465 -0.023592249 0.16288565 0.3639125 -0.06901822 0.023704024 -0.33291748 0.22491056 -0.1687359 0.10031619 -0.21281515 0.17196518 0.19879788 -0.13205893 0.3380388 -0.16722986 0.2719178 -0.06637436 0.30142942
556 0.42282212 0.12511776 -0.024088573 0.07068657 0.045588933 0.22941929 -0.040083375 -0.10001368 -0.18697028 -0.2600346 -0.13665958 -0.3452954 -0.0342178 -0.18691882 0.15652423 -0.08005522 0.09252245 0.14934255 -0.11533281 0.030833665 -0.103542075 -0.0664829 0.1046244 -0.11654537 -0.47340807 -0.2732164 -0.09694685 -0.23377216 -0.19091848 -0.17166355 0.23300223 0.034996126 0.0599894 0.22878213 -0.06412017 -0.41986275 0.045266066 -0.113963895 -0.15768607 -0.061117064 0.258225 0.10178028 -0.40239364 -0.17736487 0.13675283 -0.14813416 0.20549034 0.0019375994 -0.09321271 -0.05193404 0.14847082 -0.07922847 0.0459042 0.06333018 -0.21075308 0.57127625 0.04439689 -0.26740682 0.2308506 0.047290016
433 -0.059127674 -0.17364566 0.14224817 0.018905755 0.27123284 -0.18022393 -0.17521922 0.09230518 0.07176061 0.05665446 0.16766961 -0.03997243 -0.21473387 -0.11075761 0.24831028 -0.016475458 -0.007673337 0.073022045 -0.19035491 -0.032478116 0.107349694 0.0032704077 0.044804275 -0.24119757 -0.011232886 -0.076203816 -0.031392217 -0.12347804 -0.12593468 -0.2992588 0.2739207 0.08582349 0.20456268 -0.23976044 0.32777518 -0.43512052 0.07056953 -0.1094128 -0.26809022 -0.14934947 0.04508943 0.3125365 -0.3858226 -0.16373673 0.13356763 0.097316615 0.03139894 -0.20061809 0.033799917 0.24453922 -0.15408047 -0.34583548 0.002935227 0.2074931 -0.2949742 0.3182837 -0.024279172 -0.16942197 -0.24463376 0.19177452
236 -0.02289994 -0.18285094 0.0845962 -0.07559952 0.36403078 -0.15182464 0.030658158 -0.09025197 0.12819412 -0.2089538 0.03206257 0.15163904 -0.19285315 0.393139 0.015050518 -0.21778782 -0.0848373 0.16065781 0.15033711 0.22453237 0.10579082 -0.081300415 0.3499292 0.08073849 -0.073718764 -0.07237846 -0.3774092 -0.16935049 0.034743052 0.028221957 0.19746573 0.040965736 0.23183022 -0.18809637 0.36113748 -0.23584618 0.20654307 0.19098665 -0.17935643 -0.17533833 -0.21014524 0.48185712 -0.4228546 -0.27078533 0.04422504 0.26330012 0.32075873 -0.27898106 0.021445664 -0.013142736 0.3343374 -0.28548497 -0.024163697 0.37771845 -0.15646982 0.34147716 -0.31844422 -0.10887619 0.15923628 -0.009908176
491 0.09233748 0.0613447 -0.060916327 0.0820029 0.05702448 0.48906717 -0.0108710155 -0.10258448 -0.08025237 -0.0915548 0.105279945 -0.09517979 0.109446116 -0.07123773 0.17273456 -0.14176491 0.21882677 0.27023086 -0.111622594 -0.045268957 -0.0955252 -0.09930202 0.0651103 -0.13345459 -0.23479795 -0.2611689 0.0021030703 -0.3136049 -0.2541489 -0.28949407 0.38854256 0.076148376 -0.15551093 0.16794233 0.13614886 -0.59194976 0.15642093 -0.12844631 -0.049854703 -0.10357566 0.18678209 -0.006365463 -0.39632583 -0.2292001 0.093222484 -0.019256406 0.3453026 0.03894371 -0.16966665 -0.03112563 0.17906669 -0.16387066 -0.2600104 -0.057388876 -0.12947121 0.45697096 0.006495073 -0.34703997 0.15542571 0.013791741
461 0.062225495 -0.052649003 -0.17754878 0.13525513 0.41591907 -0.04455414 -0.08842622 -0.094025746 -0.09796914 0.09431213 -0.21149695 0.024944589 -0.28207675 0.14915006 0.23481871 -0.46009868 0.088489726 -0.11477828 -0.3292394 -0.05777039 0.022499412 0.19909678 0.22274892 -0.23060119 0.050230373 0.048846275 -0.1623025 -0.21110798 -0.1769689 -0.13074335 0.023834473 -0.10436009 0.27806434 0.07412791 0.10453987 -0.75003684 0.1841962 0.09909451 0.12299655 0.137888 0.5156974 0.25043008 -0.14771912 0.22012506 0.042630296 -0.029122492 0.16275445 -0.17918187 0.21623544 -0.32684016 0.010632327 0.11755079 0.16078083 0.29336172 -0.15205592 0.41008252 -0.099873014 -0.11245384 -0.079944424 0.20361586
287 0.27950117 0.077636406 -0.043079853 -0.07750206 0.26609427 -0.07695608 -0.19415471 -0.06215374 0.005451526 0.007900685 0.014289705 -0.16900466 -0.068872534 -0.28882977 0.16650744 -0.12519103 0.26410422 -0.13667667 -0.34547925 0.10347518 -0.00928661 -0.14739233 0.11397307 -0.053848 -0.24647509 -0.15419802 -0.31700987 -0.21361534 -0.3102492 -0.38495865 0.2768846 -0.10479194 0.06253799 0.26113856 0.0025833976 -0.41437376 0.10076189 -0.28503412 0.0501298 0.045934528 0.30638754 -0.019859137 -0.462858 -0.027094916 0.06280995 -0.2107502 0.15195762 0.041066796 0.054651894 0.028094972 -0.0002163731 -0.12022933 -0.022932043 0.039166868 -0.23935913 0.43351874 -0.00058754813 -0.2977723 0.19761613 0.27181166
191 0.33966154 0.02663552 0.015805736 0.0035324886 0.10622763 0.0888605 -0.034454677 -0.12150226 -0.24821785 -0.15997532 -0.12316091 -0.25296226 -0.009250122 -0.33747107 0.17503534 -0.099011175 0.037571575 0.13494153 -0.08779534 2.5182195e-05 -0.17061214 -0.11358365 0.005146258 -0.065219134 -0.4323647 -0.22274055 -0.049312368 -0.29208162 -0.35417515 -0.28674945 0.3165328 0.073265515 0.05073902 0.18594912 0.10587909 -0.47294414 0.1434887 -0.13199982 -0.09242588 -0.05043733 0.19389467 0.14464422 -0.39073005 -0.16673163 0.15163286 -0.20161285 0.18404022 -0.08384168 0.020138532 -0.22527206 0.09706194 -0.17175055 -0.028933799 0.089066006 -0.212504 0.4724691 -0.0068100346 -0.36900556 0.12171572 0.02664013
262 0.35424036 0.09099486 -0.10793457 0.024603548 0.10724867 0.2715357 -0.19275221 -0.043638602 0.025134265 -0.18320754 0.14948544 -0.07226535 -0.106558636 -0.10853045 0.14275679 -0.1977475 0.049188424 0.20163468 -0.35627535 0.059239816 -0.021478372 -0.16834667 0.038456917 -0.022600135 -0.09699956 -0.049154785 -0.27268127 -0.14293471 -0.3053417 -0.4634747 0.15620142 -0.07192312 -0.10134642 0.10774965 0.21987495 -0.4827728 0.15425096 -0.43467525 -0.2557691 0.1154867 0.3244126 -0.011305883 -0.34618735 -0.11026133 0.09844615 -0.053400144 0.2894293 0.12580842 -0.13413188 -0.06638663 0.16846207 -0.1755949 -0.051216677 0.02044095 -0.18808196 0.39309543 -0.11678876 -0.27985764 0.062112417 0.1084506
388 -0.052324686 -0.14878477 -0.05079236 -0.013470528 0.39731124 -0.11698309 -0.15047365 0.016831987 0.18281965 0.23223005 0.26886246 -0.06689392 -0.16545957 -0.18256842 0.36366194 -0.14370921 0.010567168 -0.016876517 0.01246068 0.021088028 0.12907936 -0.112232104 0.12297951 0.023562143 -0.054594733 0.059582602 -0.14067794 -0.39236814 0.07342037 -0.12913084 0.21262988 0.1906446 0.18249843 -0.18577771 0.28946424 -0.16067629 0.0587636 -0.09589123 -0.14845711 -0.07464105 0.018975373 0.4487865 -0.27716503 0.058476977 0.20796353 0.17124693 0.16282351 -0.24275276 0.0017853552 0.22484718 -0.106609605 -0.35838735 0.08919796 0.1943627 -0.21161082 0.3382799 -0.007047148 -0.15946713 -0.06870229 0.094775766
70 -0.16690405 -0.38925996 -0.016517293 0.03682221 -0.14743468 0.10353655 0.08286923 -0.02332058 0.12010923 -0.18047285 0.21112104 -0.10324916 -0.24002938 0.1710508 0.08667717 0.034529574 -0.10096385 0.15819195 -0.24926907 -0.07125689 0.33940512 -0.23016253 0.14489146 0.11234547 -0.1152812 0.09058933 -0.4068183 -0.3124935 0.03406905 0.023035524 0.26741347 0.11842188 0.44917077 -0.17580283 0.11088193 -0.34991142 0.6014302 -0.009374468 0.03024111 0.005564752 0.2403052 0.19938163 -0.29422945 0.04767195 0.08112193 0.04135379 0.30244946 -0.08839659 0.09028288 -0.097584516 0.14689426 0.09257297 -0.15393348 0.10332988 -0.019277275 0.2699039 -0.3138278 0.15145524 -0.1838101 -0.09340868
743 0.28677237 -0.14495587 0.009241231 -0.0651688 0.040327013 0.03525442 -0.16681695 -0.021879662 0.061075225 0.009541316 0.19915769 -0.008415118 -0.073112026 -0.08516835 0.096984856 -0.09099909 -0.29788554 0.21585521 -0.43285185 0.22386977 0.096388154 -0.12528715 0.0060938722 -0.060575634 -0.15857139 0.29253894 -0.22727261 -0.28161907 -0.2012633 -0.32605392 0.42566368 0.12548408 0.22909456 0.19106446 0.13045801 -0.44006857 0.19109306 -0.2164507 -0.14201955 0.08636923 0.2417768 -0.016676014 -0.3104653 0.050409444 0.07125179 -0.10690666 0.0836983 -0.11152225 -0.14740612 0.3719715 0.33105177 -0.23143649 -0.031335685 0.076263934 -0.11819226 0.40833136 0.085175924 -0.2594329 -0.044415183 0.3615083
24 0.23681611 -0.103426024 0.14656502 -0.28679124 -0.006061689 -0.18991272 0.08938688 -0.11298747 -0.09393492 -0.29263857 -0.22255301 -0.03511769 0.06147641 0.24808988 0.5414754 0.27461615 0.09285688 -0.17859066 -0.11738484 0.004656652 0.16797559 0.1459391 -0.06900137 0.06324284 -0.068619706 0.39404243 0.019074814 0.13527332 -0.008864716 -0.0008805392 0.122722186 -0.5880723 0.2166981 -0.14771217 -0.05208634 0.087566 -0.29134345 0.07362523 -0.19008687 0.16385382 0.014377207 0.20368515 -0.41056746 -0.06354422 0.43464023 -0.02198661 0.62123704 0.43190023 -0.1900813 -0.13215734 0.04517151 0.097491056 0.08668293 0.20480831 -0.030729074 0.22064936 -0.20947982 0.17572846 0.20137206 -0.19424926
772 -0.16223013 0.0035530294 0.06517068 -0.04134518 -0.08001081 0.29856429 -0.376788 -0.09069593 -0.10655174 -0.1348442 0.25848377 -0.19882691 0.012331194 0.14602797 0.35834852 0.30508852 0.21474256 0.020641327 0.21289542 -0.11917006 0.072024815 -0.21874158 0.15525088 -0.024992445 0.07864164 -0.08091553 -0.15271886 -0.062341373 -0.083539575 -0.3129348 0.20089614 0.39490005 0.3748258 -0.21477011 0.304867 -0.14197224 0.40396962 0.033743005 -0.09650161 0.070141904 0.23223747 0.16438422 -0.22989829 -0.026880551 0.11086852 0.030106142 0.1543687 -0.2522979 -0.08329957 0.12878521 0.36543036 -0.04396517 -0.09058918 -0.049036488 -0.010652903 0.3117997 0.049262505 0.036323242 0.09487026 -0.06886457
246 -0.058070987 -0.13956198 -0.13832785 0.009535849 0.10190999 -0.17494845 0.020847715 -0.054055482 0.071088426 0.03331489 0.21717998 -0.20642245 -0.089775 -0.25485116 0.26360634 -0.029683664 -0.09003882 0.06814537 0.0050959266 -0.11706895 0.041976545 0.01768055 -0.02641307 -0.18484771 -0.12728997 0.03872925 -0.13824035 -0.29779992 0.00074294745 -0.25168616 0.19048743 0.26013353 0.20243022 -0.18778296 0.38034382 -0.2744099 0.0044901627 0.012859084 -0.220799 -0.0986325 0.012702153 0.35887262 -0.267778 0.047125354 0.30844173 0.23911694 0.17200296 -0.10251079 0.09106335 0.2364267 0.10541285 -0.2038014 0.04635891 0.12902728 -0.2445695 0.25493494 -0.042837266 -0.23094974 -0.1586684 0.054230753
92 0.28151143 0.24842142 -0.12935507 -0.07699887 0.2378506 -0.12312229 -0.11754231 -0.046829876 -0.15807687 -0.18617204 -0.13559859 -0.030306041 -0.035767328 -0.25587082 0.44080183 0.05552402 -0.0075476817 0.05646881 -0.14505555 -0.05252253 0.030889379 -0.099332586 0.12931956 -0.07061413 -0.055315886 -0.32244357 -0.017477607 -0.2827402 -0.047689553 -0.19024807 0.2721894 -0.023178726 0.086928174 0.3270392 -0.038117062 -0.69949716 0.046931922 -0.08223569 -0.07682789 0.08326497 0.19533557 0.045481335 -0.2815618 -0.20643707 0.20889215 -0.15079941 0.08780457 -0.15309331 -0.07187282 0.09089339 -0.09930047 -0.11901297 0.004654902 0.06723317 -0.21889143 0.47043732 -0.22964315 -0.24570566 0.05220636 0.16162421
154 -0.07520934 -0.057933617 -0.12175294 -0.021391949 0.27747354 -0.18256985 -0.009644655 -0.018221319 0.33903143 -0.22365144 0.29072952 -0.25162092 -0.13044067 0.12655471 0.33599514 -0.20828001 -0.11701884 -0.15963182 -0.06446984 0.18057983 0.17027943 -0.0060534845 0.10846146 -0.07315873 -0.025708219 0.14029968 -0.19996332 -0.05740543 -0.23621942 -0.08093833 0.17154352 0.31307405 0.061611265 -0.055302784 0.27562144 -0.36082438 0.03278449 -0.20117147 -0.2319478 -0.080994055 -0.047352917 0.24622802 -0.13894996 -0.029465124 0.05386957 0.16379909 0.085158244 -0.30696362 -0.07638567 0.10069873 -0.07771972 -0.07431777 -0.043732565 0.24779789 -0.31257942 0.48506713 0.05269959 -0.27763766 -0.13919254 0.11819771
560 0.2530626 -0.12658395 -0.016579956 -0.26753598 0.012646852 -0.10121829 0.13398594 -0.07117371 -0.08892926 -0.23137642 -0.15125293 0.03850307 0.19884613 0.26048154 0.5505893 0.2018622 0.04912829 -0.19612299 -0.06359056 -0.006545842 0.3204761 0.22838856 0.097661935 0.092784055 -0.20987922 0.2607638 -0.032506164 0.19376121 0.036541566 -0.096104935 0.06828476 -0.504995 0.13739513 -0.08875134 -0.14060931 0.032757193 -0.35690707 0.035377495 -0.25984108 0.1669677 0.14622144 0.29855072 -0.37742078 -0.09922236 0.46787134 -0.050855447 0.54640174 0.49124765 -0.3084558 -0.18813771 0.09781161 0.1487787 0.057370853 0.14068907 -0.034636322 0.26652336 -0.24436085 0.20762424 0.22349091 -0.2814498
576 0.03938015 -0.06397514 -0.13375075 -0.09424812 0.25534028 -0.3252567 -0.10602276 0.16931829 0.22819602 -0.10205521 0.18706287 -0.11346955 -0.060857195 -0.14342663 0.32764855 -0.008591558 -0.21002504 -0.00983889 -0.25851387 0.062899455 0.053293657 -0.030759608 -0.05528826 -0.19514889 -0.062040456 0.024673637 -0.08449534 -0.3312582 0.07829003 -0.22719407 0.20339257 0.16416831 0.14778675 -0.07058664 0.2527442 -0.09424071 0.2641324 -0.12300447 0.05839689 -0.17653584 0.3137192 0.191816 -0.33654168 0.035173856 0.16027792 0.04957103 0.25445634 -0.20672949 -0.19664441 0.48778787 0.062083136 -0.117543146 -0.2917281 0.24143216 -0.01075033 0.27376214 -0.02168446 -0.28374523 -0.26326576 0.15893424
686 0.30110863 0.015866738 -0.012952806 0.1684058 0.0890627 0.32458127 -0.0029819948 -0.177095 -0.26093262 -0.13089311 0.05685159 -0.33365762 -0.043928973 -0.0927874 0.18733247 -0.059057873 0.07632738 0.2137826 -0.2010584 0.17133646 -0.08687996 -0.073356874 0.12987061 0.01026441 -0.26973993 -0.22648947 0.018705985 -0.10967634 -0.38847366 -0.4127746 0.3943984 0.050564863 -0.070590764 0.22005025 0.25069404 -0.41696054 0.10391116 0.0019347329 -0.14022775 -0.1581138 -0.053371314 -0.07031611 -0.3506352 -0.117271 0.040922422 -0.17628439 0.2851921 -0.09772845 -0.16491798 -0.049490344 0.07995395 -0.20896727 -0.1215424 0.077095106 -0.16986561 0.4816223 0.03521274 -0.42692125 -0.0012191047 0.02442746
691 0.317383 0.0026925202 -0.013819211 -0.03024792 0.12841898 0.5003751 0.03618828 -0.23739482 -0.048699632 -0.27969676 0.059525102 -0.030339021 0.028186927 -0.057317995 0.26138937 -0.16522059 0.0718317 0.24235018 -0.21712789 -0.11319047 -0.046808396 -0.10718979 -0.043837626 -0.017052317 -0.29316393 -0.24706328 -0.089845434 -0.26090583 -0.45042843 -0.41807532 0.18537958 0.15395716 -0.094404064 0.20902075 0.18215959 -0.47856432 0.01963356 -0.19959219 -0.1390659 -0.035505127 0.29961812 -0.027835013 -0.3171122 -0.25613543 0.13102658 0.02867942 0.24459167 0.07702851 -0.28887096 -0.11063517 0.17524403 -0.19702817 -0.04229134 -0.021556059 -0.37605333 0.44560176 -0.046818677 -0.23502839 0.07465969 0.21635266
384 -0.030495962 0.1438798 0.14162137 -0.2561838 0.01830712 -0.2725126 0.1380934 -0.13784286 0.032577347 -0.09295604 -0.15168732 -0.06845921 0.21244963 0.12271406 0.6444122 0.1778412 0.04703321 -0.09668315 -0.026493622 0.09233215 0.058805645 -0.061977398 -0.041687276 0.071391836 -0.15680134 0.35446328 -0.00061930943 0.23640113 -0.10969486 -0.042941116 0.14841346 -0.7048374 0.2022608 -0.17755821 -0.22735809 0.08103481 -0.22149639 0.1419856 -0.071528815 0.18820092 -0.023378242 0.23324695 -0.43029967 -0.10473144 0.46524352 -0.04604642 0.48451424 0.30753726 -0.18938531 -0.13959832 0.02410377 0.09354095 0.08892181 0.17607042 0.09368584 0.23324467 -0.2058484 0.08845892 0.14819552 -0.30923292
362 0.33142796 -0.025433157 -0.0847244 0.04337646 0.074738815 0.5258392 0.015985874 -0.07466119 -0.1902386 -0.29077658 0.16872941 -0.16718522 0.04723563 -0.15635012 0.18990864 -0.23712428 0.12359853 0.2759622 -0.15968521 -0.031585682 -0.08080593 -0.14895691 0.06499375 0.106507696 -0.2528974 -0.2620692 -0.18210182 -0.28026542 -0.31339642 -0.35661379 0.2623395 0.22016683 -0.07956734 0.07939834 0.060095113 -0.4700627 0.13127711 -0.21305808 -0.224771 -0.16461973 0.28000438 0.12577558 -0.31524515 -0.17813975 0.15406582 0.050133117 0.2887621 0.11787977 -0.35487288 -0.08671674 0.16432562 -0.123438865 -0.0003716149 -0.03097798 -0.23596065 0.4243867 -0.0009788702 -0.34470543 0.13261327 0.08849655
507 0.0008783523 -0.11029925 -0.17697123 -0.034562018 0.30051532 -0.24667785 -0.04597888 0.06995653 0.21685746 -0.08841994 0.34078068 -0.19963431 -0.097684294 0.0723079 0.29812387 -0.25045606 -0.21097796 -0.15393864 0.012238181 0.19736882 0.24624054 0.04668389 0.17010556 -0.07869811 -0.03780803 0.11210557 -0.23000589 -0.03794928 -0.09108388 0.0031147117 0.23429656 0.27477786 -0.021988193 0.005867891 0.34189612 -0.41724825 -0.14089683 -0.12286131 -0.2942642 -0.13024423 0.018597094 0.3099794 -0.17392376 -0.0949578 0.08736009 0.22207692 0.20244293 -0.30230415 -0.15717092 0.17755146 -0.2102703 -0.05204652 0.018663643 0.2876001 -0.1728599 0.53186953 0.059664384 -0.11766734 -0.10424528 0.18731873
276 -0.0771159 -0.0636644 -0.02668067 -0.00051899423 0.42365348 -0.24388315 -0.012639115 0.09058998 0.4298131 -0.2510423 0.34130916 -0.26263297 -0.0062099164 0.16822435 0.29925072 -0.21782076 -0.17961897 -0.10200825 -0.07293718 0.1606387 0.16614632 0.059501335 0.017816499 -0.031978402 0.008114673 0.1547319 -0.19864522 -0.17464098 -0.15813422 0.02948995 0.29748824 0.3076886 0.08295161 -0.074925944 0.38282716 -0.4295859 -0.054367322 -0.23762837 -0.29988107 -0.2244081 0.024963057 0.2715169 -0.14863916 -0.08331981 -0.00848933 0.19033289 0.119853966 -0.20441258 -0.17942482 0.22963576 -0.10480709 -0.14574224 -0.0388508 0.32255325 -0.28591117 0.51276547 0.097698286 -0.12206439 -0.16641738 0.12542896
94 0.21474911 0.08113592 -0.16787222 0.056047097 0.37362048 -0.11716568 -0.13141853 -0.1602925 0.08219572 -0.062139414 -0.0051827705 -0.17363027 -0.012055439 -0.28630224 0.18169776 -0.19129072 0.14225172 -0.2941266 -0.3105269 -0.05173692 -0.014674137 -0.0863364 -0.0730495 0.019328224 -0.30080217 -0.2105563 -0.2727573 -0.23201658 -0.3239717 -0.398439 0.29830834 -0.019484907 0.047729757 0.34530824 -0.018669222 -0.45112696 0.03470923 -0.19263613 0.015270292 0.12399614 0.35363543 -0.031474367 -0.41805562 -0.039795958 0.1148022 -0.20851998 0.13096906 0.07778849 -0.0904549 0.097821444 0.0061725257 0.017301228 0.00653116 0.115632616 -0.13761023 0.39778247 -0.030082231 -0.318293 0.23724644 0.19999874
347 0.079872325 -0.072187886 0.14428085 -0.13749434 -0.005141089 -0.1387966 0.12905255 -0.053680725 -0.020259868 -0.2600122 -0.07922232 0.04661385 0.07388539 0.29014674 0.59569824 0.24164346 0.026578583 -0.19453324 -0.08119145 -0.080431275 0.19058724 0.2485578 0.074053176 0.1567017 -0.20061398 0.2855241 0.0019976173 0.07739943 -0.007144623 -0.022545861 0.15002036 -0.62077594 0.2757369 -0.09213613 -0.20432797 0.0074345847 -0.315588 -0.06857318 -0.26812902 0.15991092 0.165778 0.27024627 -0.35385206 -0.1033644 0.39931688 -0.05083496 0.56918174 0.49889234 -0.22784795 -0.17777638 0.09472404 0.025289392 0.14976595 0.18657361 -0.012274772 0.17907424 -0.23723276 0.23493095 0.2089079 -0.19173977
602 0.18239069 -0.14407946 -0.008675739 -0.090426065 0.009323155 -0.276231 0.20587118 -0.003699044 -0.0030742825 -0.13854589 -0.20384434 -0.0578131 0.14690398 0.35198104 0.68209314 0.16889504 -0.039130125 -0.3919268 -0.039562862 0.07802441 0.05988729 0.006689917 -0.12226908 -0.06423268 -0.34854493 0.2870201 -0.058476403 0.25368547 0.026448915 0.044621553 0.14382666 -0.6765987 0.2580532 0.05955319 -0.07723564 -0.015550794 -0.21239403 0.13252245 -0.01116874 0.11527317 0.044330228 0.10805736 -0.29519734 -0.11238722 0.4478403 0.06962365 0.3466109 0.3454737 -0.25069612 0.004664301 0.08826005 0.14136319 0.005006852 0.10465791 -0.06766108 0.2306518 -0.18088783 0.095708676 0.3140344 -0.24730128
138 0.27022454 0.071611285 0.009964222 0.046069503 0.12528355 0.09764764 -0.004043035 -0.07832641 -0.22798571 -0.3564734 -0.12248055 -0.17781271 0.007951299 -0.20204046 0.3593796 0.068033606 0.013325543 0.0998816 -0.09303986 -0.10553244 -0.026859228 -0.13610184 -0.023954988 -0.017327657 -0.3781429 -0.3279163 -0.029383687 -0.19145243 -0.23652731 -0.2499869 0.21094729 0.0967189 0.09220276 0.3356469 0.01400422 -0.5960334 0.09021527 -0.044068564 -0.09454015 -0.05755551 0.10343517 0.08774091 -0.32912156 -0.2631294 0.23695242 -0.2518451 0.08204995 -0.12203863 0.034700714 -0.17696813 -0.07731665 -0.18321563 0.0093954345 0.012593417 -0.26109523 0.5195918 -0.022464031 -0.36784536 0.057536554 0.06791724
711 -0.05227656 -0.26747838 -0.036837205 -0.098427996 -0.016492454 0.14342253 -0.15816078 -0.024898129 -0.031586353 -0.069546364 0.062549576 -0.17925839 -0.049723204 -0.0050422014 0.4168549 -0.02301827 -0.014074851 -0.013621981 -0.057997353 0.04449935 0.3194959 -0.18646827 0.09285404 0.040075794 -0.18070193 0.024018148 -0.11265914 0.001933344 -0.16719869 -0.1644905 0.3600563 0.14564946 0.31642783 -0.12480325 0.30929235 -0.25085613 0.46281323 0.0061486713 -0.084282055 0.0472226 0.12580201 0.039521825 -0.11503777 -0.023896793 0.10040295 -0.0977983 0.0074115084 -0.33073616 0.04394446 0.19745132 0.567211 -0.06505661 -0.15529513 0.046037417 -0.12071271 0.19938838 0.030916877 -0.17493927 -0.009662315 0.060060468
199 0.06239971 -0.2773824 0.1726941 -0.016204936 0.08267109 -0.039316744 -0.014748772 -0.17730308 -0.10118575 -0.2657085 -0.03128916 0.108950526 0.14569724 0.34352523 0.3923792 0.16389982 -0.087340586 -0.11534943 -0.047670413 0.032001358 0.3038028 0.060589936 -0.0211608 0.16009997 -0.19705923 0.3232016 0.012512663 0.08307811 -0.10407886 -0.16818826 -0.091030106 -0.5497854 0.11255784 -0.121311 -0.09720583 0.12000275 -0.21449167 -0.057583448 -0.28319764 0.14506082 0.006449963 0.417778 -0.35966793 -0.19406034 0.43177778 0.018433178 0.6606804 0.31158844 -0.47922593 -0.094580434 0.046958998 0.04495578 0.111361146 0.27236053 0.014928528 0.11717033 -0.40451506 0.2988546 0.22130777 -0.20046613
496 0.18240406 0.19693209 -0.22817163 -0.0028659063 0.17788342 -0.14563602 -0.19249262 -0.07861459 -0.23791267 -0.05963924 -0.1309116 -0.124047525 -0.06313982 -0.23456264 0.35834554 -0.079490505 0.041998874 0.046168257 -0.08369397 -0.15788333 6.338834e-05 0.071625546 0.12815619 -0.1739793 0.030246744 -0.34913307 0.023163436 -0.26262936 -0.09098697 -0.28449547 0.14084853 -0.04134894 0.13531123 0.27852163 0.035326786 -0.8588436 0.08996257 -0.19247915 -0.011382346 0.1303743 0.27142128 0.19984138 -0.21748239 0.06378793 0.24306314 -0.12698588 -0.013559093 -0.04758162 -0.020723099 0.055505075 0.0425416 -0.14889939 0.07575025 0.15931626 -0.23539875 0.30834255 -0.42380276 -0.25090533 0.13721839 0.07460308
637 0.18727435 0.12195913 -0.03427262 0.07095724 0.16276442 0.09987782 -0.12548053 -0.11545319 0.13307068 -0.13403554 0.27605084 -0.048131842 -0.043733932 -0.1640974 0.20109954 -0.22165874 0.23318599 0.061778195 -0.48227742 0.09768291 -0.03040113 -0.23163433 0.0086372625 0.061800852 -0.021125153 -0.08126156 -0.42862317 -0.182109 -0.22358851 -0.5156788 0.16508876 -0.019136908 -0.030374268 0.11518985 0.08750773 -0.3870231 0.10750246 -0.5141062 -0.23471549 0.020348856 0.27939582 0.01259172 -0.41224918 0.025350958 0.19999385 -0.11159494 0.22686192 0.18505791 -0.13262098 0.11397045 0.038057413 -0.1523562 -0.06554238 0.004263058 -0.0032562437 0.24792539 -0.035335433 -0.33796886 0.17806876 0.2427785
644 0.3186597 0.15311934 -0.109884135 0.12864918 0.25457838 -0.0144703 -0.1314679 -0.12894979 -0.120621696 -0.2632704 -0.102621175 -0.054013234 -0.040272687 -0.1992611 0.3602032 0.0057993545 -0.08536061 -0.078795984 -0.21574843 0.0034812256 -0.044955026 -0.027596528 0.06838292 -0.14180918 -0.04357901 -0.19298545 -0.1322848 -0.24626441 -0.10082479 -0.4079973 0.28993714 0.070423186 -0.027334409 0.18795025 0.045028917 -0.58808225 0.056570526 -0.2864503 -0.027073972 0.09698819 0.22710784 0.0031859297 -0.38656983 0.023294676 0.10674678 -0.14601803 0.18053079 -0.038605936 0.02538402 0.010557214 -0.072247304 -0.23654044 -0.05675475 0.037368104 -0.29408935 0.4351607 -0.1615749 -0.34739172 0.1814574 0.15683247
726 -0.05118084 -0.16030216 0.06890353 -0.119762294 -0.11099388 0.09546979 -0.29481262 -0.11605385 -0.07268392 -0.20761795 0.046919197 -0.27137187 -0.045983247 -0.20505244 0.5213047 0.17930903 0.010067406 -0.16865857 0.060058143 -0.1758476 0.27648264 -0.2507618 0.17973745 0.16544004 -0.094973214 -0.2862672 -0.21053734 0.28843072 -0.25342113 -0.11960791 0.24005193 0.34756422 0.26971117 -0.046534393 0.2661549 -0.31754392 0.32347196 0.031633426 -0.23227078 -0.055800445 0.30152962 0.1220084 -0.16202909 -0.05528972 -0.0138654765 0.10559754 0.15020959 -0.5108641 0.010447372 0.17315301 0.46769303 0.063192956 -0.22085725 -0.18433267 -0.1774472 0.24590285 0.13638248 -0.13721603 0.05380812 0.13152583
799 -0.07588505 -0.032259256 -0.1439694 0.25322562 -0.20907737 -0.34893686 0.13376124 -0.13585691 0.08341769 0.16699305 0.041849017 -0.23916997 0.11076968 0.07515911 0.5023361 0.016040582 0.08569749 -0.34446487 -0.032355607 0.2667282 -0.1794949 -0.2714996 -0.042549543 0.03545841 0.14928456 0.20500043 0.052912775 0.1377164 -0.21019001 -0.043348428 0.15223858 -0.5158319 0.20817177 -0.122826725 0.19413513 -0.11995823 -0.33162704 -0.027675638 0.03401336 0.1923703 -0.30127713 0.10427969 -0.36152005 0.05880278 0.5182715 -0.21503891 0.35321242 0.29045537 -0.3585292 0.23146214 -0.15302907 0.1275858 -0.34974006 0.19452558 -0.007919177 0.19873467 -0.12089162 -0.14883581 0.07753086 -0.02273701
440 0.23967491 0.1603528 -0.09282476 -0.14936316 0.1285832 -0.02035258 -0.06427817 0.01867906 -0.29858476 -0.33049047 -0.20550618 -0.14446832 0.051130477 -0.26955953 0.54421914 0.079204544 0.012536312 0.082178585 -0.08284413 -0.09334022 0.045654263 -0.094085164 0.014375476 -0.050946034 -0.16652209 -0.33358967 0.1595118 -0.26727945 -0.12637676 -0.17377943 0.2790619 0.09038231 0.17756227 0.37265682 0.05235156 -0.68945664 0.011765258 0.0461857 -0.12568134 -0.08369075 0.1082785 -0.0097659705 -0.18705414 -0.3751148 0.14126402 -0.13025883 0.15702312 -0.038101267 0.07689723 -0.022585757 0.0018206127 -0.16722998 -0.009307681 0.021164175 -0.30132714 0.4549534 -0.29387245 -0.08829628 0.057017285 0.02022684
142 -0.046288956 -0.27022332 -0.15519118 0.060321037 0.26284778 -0.10575629 -0.057376284 -0.034916528 0.07827634 -0.11697288 0.19589004 -0.2122726 0.087061584 -0.17021899 0.2673184 -0.056730833 -0.0924457 -0.09731151 -0.1589932 -0.21410751 0.04396174 -0.080402106 -0.031605385 -0.20189399 -0.10406959 0.012679816 -0.1333514 -0.13151278 0.058401186 -0.0839656 0.25772196 0.2615246 0.15974928 -0.07412112 0.37473038 -0.21457677 0.14616574 -0.027139567 -0.13947359 -0.1612638 0.06565182 0.31688666 -0.19501716 -0.21419728 0.18256085 0.10995929 0.10240258 -0.17921145 0.069959745 0.28335944 0.19401789 -0.2654593 0.009527364 0.184978 -0.18746303 0.38551068 0.09078985 -0.23655821 -0.27845094 0.11710625
200 0.17339012 -0.06861581 -0.057694633 0.056257665 0.10425849 -0.026128769 -0.044712666 0.04175546 -0.10353123 0.08337117 0.037093155 -0.047729354 -0.09025299 -0.10585341 0.37164572 -0.0784339 -0.1085546 0.050157312 -0.19597308 -0.022014003 0.28190726 -0.2252266 0.10746707 0.034182835 -0.2884473 0.121598296 -0.119563244 -0.23905243 -0.1355289 -0.11536179 0.3308442 0.1393046 0.36273757 -0.027889453 0.20193386 -0.2785461 0.45698836 -0.059293367 -0.22449467 -0.058064926 -0.011740669 -0.07974703 -0.1587629 -0.10869276 0.2524914 -0.08333982 0.12845103 -0.18673739 -0.0137245795 0.36814675 0.39449129 -0.087860614 -0.12517527 -0.013982101 -0.07205357 0.2818895 0.22741264 -0.25280663 -0.06658752 0.036239196
574 0.23375544 0.07702921 -0.059724174 0.014190395 0.19574992 0.14911115 -0.04180387 0.02545457 -0.33933434 -0.37308797 -0.16111377 -0.2515371 0.0783967 -0.18970124 0.40810028 0.13640447 0.01816991 0.13282318 -0.048372503 -0.13230886 -0.018857619 -0.11670063 -0.030421408 -0.08233436 -0.23802349 -0.33314 0.06791426 -0.24038987 -0.1091327 -0.15148379 0.27699736 0.1402026 0.08097678 0.3152682 0.017405814 -0.65211177 0.11088069 -0.02461042 -0.057528276 -0.04731576 0.061672874 0.08821634 -0.19968456 -0.21880168 0.21319723 -0.15552573 0.16073552 -0.10465349 0.020909075 -0.050932415 0.05442563 -0.16992444 -0.016321078 0.06431784 -0.22657236 0.5488172 -0.13243602 -0.2247601 0.1213714 0.11461307
349 0.29663625 0.29310828 -0.3897956 0.009857414 0.36800966 -0.04395226 -0.115319334 -0.14306359 -0.2711845 -0.05958541 -0.084973685 -0.042814072 -0.061329637 -0.3609122 0.5345257 0.17479612 -0.06952823 0.0012216115 -0.048273973 -0.09872617 -0.0015780185 -0.10082761 0.046234325 0.028684596 -0.25369242 -0.33759093 -0.14081919 -0.6526579 0.021467417 -0.2851356 0.32143927 0.08281737 0.009866831 0.13556601 0.07427203 -0.55012405 0.10310656 -0.03825244 -0.09719227 0.028942423 0.05366199 0.17139214 -0.29668406 0.023168763 0.33558825 0.0650669 0.065969706 -0.029181702 -0.07709907 0.11634533 -0.09780596 -0.027925547 -0.05925451 0.05888371 -0.44852376 0.35840255 -0.1066223 -0.24450903 0.06419444 -0.0016160114
605 -0.034339897 -0.16769223 0.27805555 -0.08978497 -0.10173311 0.14124502 -0.30862984 -0.09588412 -0.052413344 -0.20549849 -0.010819735 -0.21401766 -0.15106039 -0.09424225 0.6370291 0.15507776 0.12471982 -0.15929876 0.009976598 -0.1850443 0.11263395 -0.12983373 0.18242685 0.07557307 -0.03792078 -0.18686876 -0.12594463 0.18802112 -0.25679192 -0.0866103 0.1836212 0.29453763 0.26773846 -0.15211515 0.35954285 -0.2632447 0.4093913 0.004053696 -0.2994371 -0.009179565 0.31250036 0.120437145 -0.064418964 0.029646223 -0.06045099 0.08392418 0.056430504 -0.34910834 0.12338686 0.25901377 0.35062855 -0.045380782 -0.036221556 -0.068685815 -0.20376845 0.4151542 0.22834715 -0.09782254 0.0267718 0.15537766
759 -0.077596076 -0.07296231 -0.0439514 -0.1658826 0.12246247 -0.034175795 0.032824732 0.039537877 0.24621151 -0.22231904 0.13717681 0.15501645 -0.060744062 0.24616322 0.4471769 -0.26268727 -0.061355863 0.11301023 -0.07366106 0.24743381 0.13908066 -0.11179988 0.28772593 0.15541555 -0.29491374 0.24532413 -0.15383537 -0.12638074 -0.17873798 0.04258915 0.21612535 0.28690445 0.35973185 0.06686111 0.25178412 -0.35125273 0.46379334 -0.075134024 -0.24455436 -0.20514481 -0.12533055 0.053978056 -0.31029218 -0.29809648 -0.101368815 0.17858382 0.10533462 -0.36719263 0.08188674 0.036993228 0.121832244 -0.08955684 -0.24223927 0.12191281 -0.03167759 0.3454799 -0.019908361 -0.15688315 0.05349778 0.12184223
223 -0.04293072 -0.12759535 -0.014139187 0.0697992 0.15999928 0.008106232 0.119511336 0.15266475 0.44423413 0.02742668 0.22340205 -0.10366756 -0.025106356 0.17020284 0.3095926 -0.11645373 -0.028119393 0.3534091 -0.07349063 0.21184021 0.09732158 -0.13371313 0.32289007 0.1495092 0.021729225 0.28019914 -0.04994135 -0.1584038 -0.10671218 0.08362363 0.030745374 0.13484849 0.32322076 -0.007111213 0.38153782 -0.26616135 0.18966857 -0.074786335 -0.26154184 -0.18679914 0.19825277 0.15474474 -0.21074042 -0.23475541 0.35199007 0.02511904 0.20309842 -0.41161937 0.103248045 -0.042702015 0.039656967 -0.038075875 -0.0812345 0.30083317 -0.111581795 0.29529575 0.05796928 -0.11057429 0.13204266 0.39624298
353 0.09572136 -0.32530656 0.097618185 -0.04565241 -0.038382914 0.27421618 -0.43503985 0.008863175 -0.1662092 -0.14989379 0.123764485 -0.20415491 0.0030009423 -0.13954732 0.49244836 0.09017201 0.19038811 -0.03753047 0.12521315 -0.19614056 0.19531822 -0.096643336 0.11957762 -0.03554232 0.15443633 -0.13472638 -0.20848146 0.09179626 -0.027565572 -0.071707375 0.1846364 0.2890373 0.26058528 -0.22388871 0.32485133 -0.26945552 0.38683224 -0.11965619 -0.28789464 0.16517921 0.3231008 0.34177664 -0.15257515 -0.0061404943 0.13544187 0.076337025 0.080606215 -0.2933151 0.07908268 0.120410666 0.3889789 -0.043352827 -0.10149819 -0.00071401114 -0.1644598 0.25458625 0.06944803 0.12679756 0.10240053 0.08642924
721 0.02170321 -0.17454323 -0.11181033 -0.11948337 0.13925664 -0.05575134 -0.2778212 0.043294787 0.10768329 0.16449456 0.20547657 -0.042870898 -0.10844688 -0.11839938 0.3899242 0.028584648 0.022089891 0.047944058 -0.0708681 -0.08120306 0.23358011 -0.26659852 0.23529707 0.008055193 -0.012920558 0.009847894 -0.19712919 -0.25564295 -0.084529586 -0.117927186 0.16244581 0.22288871 0.17205626 -0.11352661 0.22848077 -0.04190777 0.14244887 0.026238555 -0.08386183 0.08620718 0.12942727 0.27684665 -0.1841953 0.10186184 0.3493542 0.07357709 0.116968706 -0.14570254 0.06198798 0.33456254 0.0086800475 -0.18542346 0.14961815 0.015621914 -0.24708836 0.40866783 0.079072125 -0.07473288 -0.11161604 0.24494255
526 0.030851094 0.036401886 -0.2787347 0.054080185 0.33023977 -0.31810483 -0.23197988 0.119132146 0.2619838 -0.064090244 0.198867 -0.08492348 -0.16743398 -0.19120993 0.3694078 0.03758332 0.004305542 -0.015838917 -0.22557102 -0.015652398 0.03610249 0.0083350735 0.09986396 -0.103102155 0.069997795 -0.12255029 -0.15018922 -0.16640612 0.094036825 -0.21592273 0.12607622 0.18641241 0.04491757 -0.20344296 0.2491236 -0.1142377 0.13974372 -0.09495869 -0.021426298 -0.113470554 0.1851637 0.20664433 -0.38426444 0.08617574 0.17612858 -0.009844367 0.32859278 -0.20791712 -0.11266684 0.5194184 0.0073305983 -0.115985096 -0.17569603 0.12999068 -0.034195643 0.2823525 0.032267716 -0.32394436 -0.08917076 0.32495722
421 -0.15008084 0.044654787 -0.30400783 -0.12248245 0.1596869 -0.3057393 -0.19110723 -0.06917642 0.08378203 0.06140295 0.1652308 -0.15766944 0.15097503 -0.15435594 0.2215222 -0.16823281 0.06111781 0.007483675 0.009251206 0.07964842 0.068431474 -0.036266394 0.062335227 -0.20036562 -0.011744844 -0.35198802 -0.18325418 -0.21043018 0.0208385 -0.33055 0.24808143 -0.021840794 0.16393897 -0.25562537 0.39069754 -0.1637972 0.09311679 0.1156094 0.06706443 -0.12646307 0.034452982 0.008811281 -0.38270998 0.08792396 0.29110694 0.0049953116 0.17645572 -0.06555353 -0.07996532 0.24236274 -0.030726913 -0.15188193 -0.25837365 0.19703281 0.13338174 0.29066414 -0.044510085 -0.33718508 0.02935416 0.14757323
651 0.21651292 -0.10317195 -0.03485484 -0.107113294 0.17912759 0.079611205 -0.2096137 -0.14156117 0.13087018 0.038314678 0.21834895 -0.123223506 -0.013673252 -0.09553549 0.24861872 -0.17252061 -0.30944437 -0.014917786 -0.48274457 0.23117867 0.09923865 -0.21298209 0.007677661 0.021970918 -0.25732574 0.40745193 -0.16012008 -0.2917057 -0.2829244 -0.50740707 0.3222289 0.1658331 0.2306804 0.07637319 0.12718229 -0.38606566 0.24005161 -0.23965925 -0.18815863 0.07108785 0.26241678 0.023561092 -0.1696953 -0.044683725 -0.061406657 -0.10380752 0.05100492 -0.14577582 -0.12542224 0.419361 0.28423312 -0.08500479 -0.05908013 0.09390621 0.06843346 0.2802799 0.098566644 -0.40330267 -0.13797128 0.33406028
744 0.3953907 0.18060666 -0.04276535 0.023494558 0.123877905 0.10223003 -0.016494548 0.03240944 -0.29822862 -0.39457285 -0.13599648 -0.2823806 0.09162846 -0.20039922 0.5126959 0.21044198 0.016513247 0.2098838 -0.053862568 -0.08953836 -0.04199617 -0.16927019 -0.01705993 -0.05406717 -0.29336688 -0.29698592 0.052130166 -0.13427818 -0.056184985 -0.14526658 0.30047902 0.11198856 0.033711232 0.19279073 -0.0821261 -0.6476331 0.07068499 -0.101785935 -0.13518399 0.00046682646 0.06580193 0.07911115 -0.21147689 -0.25575915 0.17999887 -0.14096037 0.14371851 -0.13336 0.059351172 -0.08501178 -0.03728895 -0.15053265 0.037067145 0.0597787 -0.15142867 0.5762808 -0.24722283 -0.29787973 0.1740954 0.054920133
801 0.13062324 -0.16713563 -0.13990285 -0.02037247 0.085091524 0.14758131 -0.032349586 0.05680124 0.019264037 -0.05997866 -0.1728957 -0.058349542 -0.11579935 0.09254742 0.40181443 -0.06838443 -0.33476034 0.21371762 0.052640676 0.28868955 0.3596419 0.046497446 0.053018518 0.077395044 -0.04864717 0.31019685 0.17916918 -0.33882728 -0.06890266 -0.19145073 0.31112218 0.24632798 0.19429244 0.15381388 0.21839494 -0.38216928 0.1721639 -0.22240756 -0.12716347 0.11078354 0.1824424 -0.11074366 -0.20604792 0.09436276 0.16119185 0.15260807 0.16924456 -0.41675046 0.004906738 0.2615174 -0.082938366 -0.3092103 0.00029508627 0.21169123 -0.08018333 0.50166667 -0.1475605 -0.010382289 -0.26777765 0.3239944
331 0.02500401 0.06948864 -0.26465747 -0.21259874 0.3839553 -0.041434847 -0.14841817 -0.11237166 -0.08137865 0.26415172 0.07798624 -0.19034012 -0.032859467 -0.04914284 0.3104211 0.24591696 -0.0036261412 0.036772035 -0.07626241 -0.09851869 0.045917187 0.011099674 0.061177194 -0.21451499 -0.16979855 -0.32150632 -0.019842584 -0.53160083 0.075174674 -0.20723663 0.46236986 0.13021812 -0.0038680371 0.07949202 0.2239172 -0.27645978 -0.02591833 0.03727128 -0.0047433074 -0.16350871 0.035258498 0.2102829 -0.32720578 0.050212696 0.32480332 0.054110315 0.22953705 -0.042256784 -0.15376784 0.016122544 -0.3222639 -0.25590622 -0.25092438 0.08428956 -0.27363577 0.4044935 -0.0703998 -0.43039483 0.06505613 0.10895272
55 -0.017759232 -0.2144061 0.08963074 -0.086359814 -0.100304015 0.11779566 -0.3457271 -0.009118407 -0.0075865476 -0.19156209 0.005364882 -0.20845726 -0.035698347 -0.09842538 0.5360551 0.12658179 0.10093192 -0.15447327 0.06675549 -0.1385876 0.2321711 -0.24879731 0.2187945 -0.04353599 -0.030162297 -0.2714836 -0.19456153 0.2991916 -0.17877407 -0.13342464 0.2220356 0.25979993 0.2217453 -0.15398587 0.27137563 -0.29459327 0.40881845 0.021630218 -0.28286323 0.049634673 0.2733565 0.09799174 -0.11180049 -0.059326846 -0.06538119 -0.008935652 0.030903129 -0.4755564 0.0885471 0.2338831 0.47856477 0.020048697 -0.14903249 -0.048480336 -0.18539934 0.38069692 0.12771766 -0.078786224 0.014160701 0.15717746
280 -0.052217953 -0.10551378 -0.26962164 -0.18086036 0.30253497 -0.17051786 0.13410713 -0.12706137 -0.090601675 -0.28268272 0.21546808 0.14712122 -0.055107336 0.27065518 0.5108649 -0.29555607 -0.011503274 0.06383681 -0.02330724 0.31655377 0.08751916 0.02720563 0.4035543 0.27292833 -0.05370917 -0.0021303121 -0.26857525 0.064647265 -0.34395656 0.12226298 0.15920088 0.0023443005 0.36662364 0.06343996 0.27363446 -0.22272214 0.22033131 -0.09015861 -0.3015908 -0.12556809 -0.098114565 0.006817954 -0.082660876 -0.24433817 0.03079497 0.23424663 0.25775006 -0.1804571 0.06626635 -0.13519868 0.23638329 -0.21263668 -0.055459507 -0.09049657 0.0046729865 0.34764323 0.07107789 -0.29992944 0.20670354 0.12361521
787 0.15801495 0.116300724 -0.10435513 0.006938708 0.10247334 0.1462689 -0.11211489 -0.18202268 -0.19925392 -0.55665773 -0.071037106 -0.045050416 0.04608282 -0.13229772 0.102380544 -0.101776786 0.12073495 0.052395746 -0.2559831 -0.071895756 0.062489025 -0.16153143 0.1532697 0.021372324 -0.054613363 -0.26354134 -0.119646996 -0.25668883 -0.1488871 -0.29741535 0.2257508 -0.038968015 -0.02547604 0.07639518 0.15220287 -0.271354 0.062050406 -0.108637884 -0.0596244 -0.14957358 0.13246943 -0.05938614 -0.35287336 -0.104092784 0.22619739 -0.30020672 0.310291 0.083579764 0.14208566 0.18176505 0.116106585 -0.20803948 -0.14108804 0.10044643 -0.13499129 0.60795486 -0.15251595 -0.23406655 0.034310684 0.13108511
466 -0.14763933 -0.06859802 -0.05641357 0.12266955 0.34457567 -0.20582713 0.10283754 0.08408814 0.40855977 -0.24151038 0.32204515 -0.2533176 0.20658691 -0.028586585 0.31641492 -0.2425294 -0.18267356 -0.026431773 0.090853795 0.070830114 0.27081972 0.13711876 0.09771478 -0.25145268 -0.08113118 0.19651987 -0.1398682 -0.03228417 -0.017135166 0.061205916 0.32328144 0.25693387 0.10718503 -0.10273771 0.27521157 -0.35401168 0.0039760824 -0.18309139 -0.25604865 -0.18738368 0.061814092 0.18964833 -0.18701063 -0.09073721 0.07454258 0.3123535 0.13694803 -0.2843522 -0.07096129 0.044763066 0.055886388 -0.009242095 -0.08257882 0.31493995 -0.278645 0.577264 0.090558164 -0.17679413 -0.14348331 -0.012903999
486 -0.0014537997 0.009156852 -0.24049786 -0.17144234 0.26584354 -0.2857274 -0.043400623 0.024089398 0.17320785 -0.21669067 -0.096813366 -0.16852742 -0.054845512 0.016284887 0.29115188 -0.12792963 0.1999649 -0.13848758 -0.11283359 0.27781284 0.052975435 -0.06890925 0.22940749 0.038517155 -0.034460697 -0.116592124 -0.075450495 -0.2556758 -0.1230511 -0.13634993 0.1535386 -0.048842143 0.15509136 -0.0026115663 0.14792885 -0.49141073 0.08221505 -0.15681547 -0.072217375 0.09669134 0.18840806 0.16593549 -0.33664376 -0.103725925 0.103598654 -0.18125434 0.09370005 -0.11118717 0.19268027 0.023941256 -0.36686066 -0.15856592 0.031750597 0.035476614 -0.14678495 0.23978527 -0.2048009 -0.1695918 0.07750553 0.25949225
718 0.29159814 -0.061019048 -0.06213892 0.034211706 -0.10870027 0.43158668 0.047969963 -0.15695989 -0.1360475 -0.3489685 0.036348984 -0.08476947 0.05316782 -0.042061858 0.29618475 -0.09847728 0.17177805 0.104981564 -0.11682179 -0.04174791 0.07463715 -0.14565742 0.034151446 -0.015873404 -0.16597007 -0.23898067 -0.01633492 -0.2053257 -0.1947423 -0.35718876 0.32068506 0.17864092 -0.21058197 0.25894624 0.1561873 -0.40503585 0.107235715 -0.23316222 -0.2401855 -0.10540079 0.21336685 0.058921 -0.3777811 -0.11208738 0.11446539 0.027298551 0.2925244 0.07954164 -0.10383174 -0.108644724 0.12906182 -0.0697894 -0.06372438 0.043453556 -0.2640131 0.4427336 -0.18276636 -0.19742164 0.14104322 0.082062416
512 0.011738273 -0.15364942 0.06466763 -0.06395214 -0.0812826 0.16783124 -0.38371763 -0.11750612 -0.05464026 -0.2744212 -0.04401119 -0.31957775 -0.0188709 -0.093360886 0.508958 0.18306336 0.13338707 -0.19861434 0.12267978 -0.113218315 0.26706454 -0.21969514 0.20422244 0.016248865 -0.012840846 -0.28095162 -0.18483736 0.2681156 -0.18253884 -0.2456267 0.19379577 0.32635453 0.25779065 -0.19411081 0.26153785 -0.2710858 0.38668746 -0.05949092 -0.17228933 -0.02517103 0.18035172 0.16017671 -0.122962795 -0.012876433 -0.08748093 -0.026860109 0.09812708 -0.47887808 0.09130294 0.16133036 0.58547807 0.027793217 -0.19521818 -0.014335926 -0.20913601 0.21591726 -0.008354501 -0.14748722 0.10992904 0.13285723
797 0.22063325 0.031288408 -0.24534987 -0.1821254 0.15958957 -0.0031901165 -0.15942341 0.069096945 0.20198677 -0.02181562 0.07859058 -0.27343306 -0.12096977 -0.21232048 0.08230122 -0.20060822 0.085944444 -0.08862711 -0.33607432 0.17408596 -0.16815923 0.031367842 -0.0999917 -0.008048546 -0.2534028 -0.020590078 -0.45618647 -0.26798952 -0.24572131 -0.39115408 0.38455313 0.026282083 0.09102123 0.16414845 -0.032267146 -0.45917514 0.17848702 -0.22539723 -0.121111184 0.2692351 0.24222627 0.16838373 -0.3538627 0.026523048 0.23850854 -0.07995626 0.034050822 0.077444 -0.018922392 0.02225657 0.03287738 -0.074551746 0.05137851 -0.001374571 -0.114473194 0.41912654 0.059032373 -0.5028656 0.1966747 0.25257468
11 0.10679105 -0.13807656 -0.089427955 -0.069182314 0.30059394 -0.2521174 -0.028396422 0.16334797 0.13871191 -0.10257361 -0.10245203 -0.2930625 0.078971975 -0.23998733 0.14281963 -0.075876005 -0.13297671 -0.025054174 -0.059570324 -0.09125042 -0.007666765 -0.059212185 0.034275528 -0.3061413 -0.06363536 -0.08619988 -0.17668407 -0.10996452 -0.07801367 -0.17324547 0.20423132 0.07987581 0.22158588 0.048252847 -0.053678684 -0.22111101 -0.02123816 -0.16206163 0.077932365 -0.15134458 0.24976458 0.17238462 -0.5139139 -0.22686936 0.26105535 -0.0441891 0.24054596 -0.15065506 0.050888427 -0.032135766 -0.10063369 -0.18843022 -0.07403243 0.12660262 -0.17636582 0.43586773 -0.012566129 -0.2249449 -0.0148479575 0.17538695
727 0.07947188 0.010285394 -0.27108085 0.25410566 0.35313755 -0.2744045 0.012832747 0.021176726 0.24827771 0.07630141 0.37242755 -0.26474446 0.188815 -0.015988791 0.2790882 0.00054849935 0.010879174 -0.05579065 0.0011123159 -0.1723348 -0.0038732635 0.06654785 0.07710516 -0.2102826 -0.06545365 -0.072832175 -0.069921546 -0.074667014 0.002412463 -0.23714185 0.2401927 0.17256719 0.30002055 -0.07892469 0.33300102 0.061352607 0.11478847 0.08985758 0.0660329 -0.38242692 0.08997022 0.08483477 -0.24989446 -0.12139456 0.118131414 -0.03915824 0.32679325 -0.18078475 -0.012564015 0.35396332 0.063391596 -0.09916436 -0.35042718 0.1305878 0.0752624 0.4470006 0.0308788 -0.33644122 -0.31549153 0.013542914
197 -0.03458614 -0.17853099 -0.10442743 0.099053115 0.16789027 -0.058534708 -0.02727029 -0.0006985318 0.1600009 -0.045833077 0.23664853 -0.27680764 -0.06248217 0.013484119 0.31635922 -0.27518335 -0.28142425 -0.16767298 0.023479529 0.060581647 0.16802812 0.042831633 -0.10229764 -0.33323425 0.1260314 0.044970322 -0.22140718 -0.025061503 -0.17062774 -0.21206596 0.32055813 0.2291866 0.17729911 -0.20691915 0.29320076 -0.27576274 -0.048439138 -0.08994405 -0.2472209 -0.1498849 0.10870842 0.47825366 -0.15660569 -0.12921068 0.104857415 0.14217675 0.0066837617 -0.14451966 -0.04763681 0.2133717 -0.17138125 -0.15322007 0.10604472 0.2579725 -0.22835797 0.49933007 -0.031687375 -0.057212375 -0.31175676 0.05365234
84 0.1644887 -0.21680993 -0.20035328 0.53709394 0.29406068 -0.06881344 0.057694055 0.15597299 0.192454 0.054758586 0.29783943 0.10419412 0.104006946 -0.11868662 0.5816218 -0.20864111 -0.071455695 -0.24657977 0.16676225 0.3225983 0.2181569 -0.32198417 0.1333182 -0.27067578 0.09754818 0.43908808 0.050532524 0.09029463 -0.09126689 -0.15275791 0.026744526 0.27431527 -0.048568536 0.1574189 0.39802232 -0.117542654 0.30561656 0.65235674 -0.10353616 -0.10114889 0.52588636 0.41327056 -0.21492884 0.2712144 0.24237646 0.033970945 -0.04413313 -0.015160106 0.27430543 0.24963492 0.34725228 0.16139545 0.06695892 -0.3694554 -0.3267474 0.4288997 -0.4656842 0.051393032 -0.27410513 0.33635953
493 -0.036871158 -0.19963625 -0.104848795 -0.2166028 0.26760438 -0.06605708 -0.17461231 0.16036521 0.16205208 0.10134106 0.15987054 -0.072881006 -0.1559182 0.030498102 0.43542027 0.017020326 -0.17178851 -0.005995716 -0.33820617 0.1650453 0.21315546 -0.19500598 -0.055033136 -0.12579301 -0.034580003 0.11770452 -0.16118848 -0.3242962 -0.01235878 -0.37161064 0.34260246 0.23569122 0.1856641 -0.091048546 0.007626821 -0.35027304 0.29516223 -0.22445041 -0.06849616 0.06306851 0.05663819 0.08434046 -0.24393001 0.14773095 0.1551657 0.046921354 0.17199121 -0.17850287 0.006046021 0.5664022 -0.07700791 -0.2450831 -0.011878264 0.18571542 -0.056528024 0.2742227 -0.007936497 -0.26824138 -0.22117566 0.16792463
495 -0.12796484 -0.2044513 0.04391537 0.0463834 0.31511137 -0.13115524 0.016726013 0.03966599 0.21220939 -0.051860355 0.17401248 -0.19773924 -0.08486161 -0.17903724 0.3479797 -0.103991166 0.06855763 0.03163107 -0.08226669 -0.08958129 0.16966553 -0.041994266 -0.07799409 -0.23787771 -0.05553354 0.07114206 -0.16118968 -0.26707208 -0.07012093 -0.11824335 0.18901503 0.24220818 0.22883514 -0.13493043 0.21576458 -0.1944873 0.06977239 -0.18478172 -0.15840277 -0.13168174 0.015579084 0.23242003 -0.24318187 0.10936719 0.26141143 0.16935506 0.075638466 -0.060586717 0.06384528 0.31874514 0.051906917 -0.15574987 0.0010115257 0.2127842 -0.2163198 0.39104766 0.052974883 -0.19293873 -0.31429383 0.1459876
716 0.25790915 0.15196805 -0.25059837 0.009706173 0.26851204 0.07445019 -0.0027461208 -0.084730886 -0.301824 -0.07410293 -0.05547614 -0.19118871 -0.06787696 -0.24051651 0.5314596 0.22760011 0.04539402 0.141903 -0.06614861 -0.20357184 -0.020497005 -0.17214592 0.0184927 -0.011212287 -0.34781414 -0.31917298 0.066628665 -0.5895213 0.08306978 -0.07574462 0.2851719 0.11342111 0.21661177 0.14914963 0.095507726 -0.53520155 0.12865159 0.11325193 -0.2237338 0.13750388 0.11964884 0.064809576 -0.178208 -0.13652456 0.37956586 -0.008266479 0.08630077 -0.08295631 0.027166188 0.022178557 -0.036678217 -0.18158746 0.051945303 -0.033011418 -0.3828418 0.3973439 -0.16284797 -0.14907508 0.118284434 -0.13133003
293 0.10113869 0.31176755 -0.012731984 0.033769086 0.088273086 0.31246963 -0.01875765 0.07646548 -0.18685433 -0.57138866 -0.054893084 -0.14627802 0.0033804537 -0.10585293 0.33729154 0.047345214 0.08532004 0.280895 -0.15023285 -0.08387272 -0.03462505 -0.15781446 0.083562985 -0.0776884 -0.18116264 -0.23049521 0.06700899 -0.20682663 -0.056223724 -0.19199322 0.30390292 0.06460241 -0.019316155 0.10310001 0.112334326 -0.56002957 0.08151712 -0.047243275 -0.028206525 -0.012909142 -0.03462341 0.025274169 -0.23918235 -0.19328697 0.23478983 -0.1659083 0.18202946 -0.06529482 0.1199501 0.0047598924 0.2524182 -0.29213238 -0.09358354 0.1591062 -0.21198593 0.6100171 -0.27460244 -0.13992335 -0.0701947 0.0011803609
403 0.33774853 0.16164602 -0.07280218 -0.1971259 0.17306204 0.14348768 -0.042624068 0.030631702 -0.19731241 -0.5152258 -0.121454276 -0.087940216 -0.041220743 -0.09469188 0.46446595 0.15752293 0.10022802 0.32991567 -0.11151833 -0.09071865 -0.022667585 0.009544795 0.13971189 -0.12175862 -0.12708019 -0.19654194 0.102363296 -0.30334884 -0.039249737 -0.19220217 0.31753334 0.06546954 0.16754243 0.1143577 -0.081357956 -0.47554994 -0.047279146 0.08236216 -0.13123111 -0.045006167 0.068938546 0.011965654 -0.30242568 -0.15659714 0.23857643 -0.29472062 0.14910595 -0.07598229 0.3358767 0.010904107 -0.11072964 -0.24020976 -0.113525815 0.14317062 -0.15466736 0.63318753 -0.2678174 -0.10878571 0.036028516 0.061449915
306 0.39015076 0.116450794 -0.09698255 0.058232628 0.08865589 0.14294538 -0.041159023 0.012406328 -0.27266714 -0.30104983 -0.06749122 -0.120697215 0.018803684 -0.25714058 0.42776766 0.10395385 0.024140535 0.2477916 -0.033147503 -0.026793052 -0.04931742 -0.10815275 -0.013631537 -0.027242519 -0.30077547 -0.31680712 -0.043019347 -0.26218864 -0.01913664 -0.26035818 0.317491 0.12631716 0.14339173 0.36720473 0.032873623 -0.5443432 0.039670806 -0.15021865 -0.053515565 0.041128524 0.09163227 0.14848925 -0.3315592 -0.22083795 0.22401996 -0.27467608 0.15514566 -0.09010296 0.08961262 -0.08219075 -0.019452933 -0.15621895 -0.017344404 0.011847761 -0.3217551 0.612831 -0.04274158 -0.2724652 0.11611172 0.059695255
703 -0.14366573 -0.24506612 0.041876853 -0.19437373 0.100377575 -0.07750919 -0.1594701 0.007626381 0.11900125 0.09962306 0.13839413 -0.0022395703 -0.21314567 0.041939218 0.32586893 0.0116933305 -0.35735103 -0.01446846 -0.095046476 -0.06821252 0.30585974 -0.11050712 -0.08620796 -0.12532163 0.16505133 -0.060043987 -0.3625449 -0.090336084 -0.22177291 -0.21190456 0.14574976 0.17340885 0.39638546 0.046283804 0.3680984 -0.3165419 -0.11564107 -0.14843525 -0.26759303 -0.13411596 0.12196445 0.33709747 -0.49258405 -0.030445494 0.17637368 -0.19711667 0.21798469 -0.17649513 0.03157281 0.40774226 -0.054557804 -0.35940498 0.048116643 0.1052537 -0.21489514 0.08896623 -0.05128236 -0.32035074 -0.020134404 0.1784431
589 -0.108233295 -0.223374 -0.19556315 -0.08336805 0.14016545 -0.043966323 -0.089367785 0.043142002 0.12490428 0.050074767 0.2124795 -0.21391574 0.0013612782 -0.05796966 0.3062796 0.016417895 -0.12847659 -0.17394064 -0.35771376 -0.09118168 0.18141818 -0.19985412 0.00038064132 -0.09050312 -0.117052294 0.15773891 -0.08192427 -0.27724263 -0.08000265 -0.3447593 0.3970847 0.23756163 0.2511589 -0.016380291 0.09396488 -0.5287338 0.23837471 -0.2258056 -0.22261393 0.056109976 -0.016699068 0.11737952 -0.10556804 0.07484995 0.06327409 0.048996925 0.15072365 -0.10439696 0.0481214 0.47799605 0.18091391 -0.21006352 -0.0011307583 0.2676958 0.018455112 0.12739933 -0.0087545 -0.2731044 -0.2265993 0.1183442
196 0.37323943 0.04079881 -0.047265284 -0.02805615 0.013409631 0.13612406 -0.0053675636 -0.02964602 -0.25514653 -0.20131305 -0.14048825 -0.14366387 -0.025762176 -0.11448623 0.54798895 0.13418283 0.0011695492 0.21285756 -0.014023579 -0.07629014 -0.105007485 -0.13945207 0.0071861036 -0.09319582 -0.12353437 -0.32427782 0.15012398 -0.25218278 0.04231826 -0.19098228 0.242907 0.14777604 0.23233463 0.27196908 -0.009873339 -0.6626863 -0.042936157 -0.078980535 -0.22299737 0.020658592 0.22171713 0.09676968 -0.256011 -0.12456197 0.18698119 -0.20320645 0.12520109 -0.14538655 0.15330446 -0.028800344 -0.06057439 -0.23105651 0.13440144 0.07813385 -0.19489662 0.6273369 -0.11505728 -0.13324614 0.09248962 0.08858277
490 0.074767165 0.21014525 -0.26225075 -0.23502801 0.36727032 -0.1607869 -0.29801863 0.033775106 0.2068726 -0.07817689 -0.030701328 0.10106087 -0.26324072 -0.050971117 0.11699341 0.27206942 0.053655814 -0.0060557793 -0.18528533 -0.20205313 0.15818799 0.11759631 0.18534616 -0.10825196 0.13394469 0.033412118 -0.48428464 -0.45573163 0.09695351 -0.31090644 0.2981913 0.02303976 0.24446806 -0.10024608 0.045621343 -0.33509588 0.20964092 0.10734376 0.08280924 0.07368977 0.05300527 0.12316085 -0.32925928 0.21861015 0.38905033 0.0720778 -0.013559979 -0.0918296 0.08929758 0.34880552 0.05748308 -0.13953462 -0.07722336 0.09317461 -0.46083632 0.54687506 -0.2627276 -0.13838969 0.032124497 -0.028741516
185 0.46615657 -0.16134118 -0.060557634 -0.0015591175 0.008133387 0.26299706 -0.014455992 -0.15567893 -0.27083576 -0.31739143 0.068534136 -0.089766726 -0.098457746 -0.10926129 0.20714663 -0.05556939 0.020457968 0.31623387 -0.16755044 -0.09012792 -0.012120764 -0.1325276 -0.03649319 -0.07776683 -0.15748112 -0.08824955 -0.042268135 -0.31414506 -0.16252817 -0.3436099 0.090465955 0.05591084 -0.13149813 0.29574785 0.23487638 -0.47315484 0.0019569264 -0.2447593 -0.28420657 -0.089216165 0.32990038 0.1306334 -0.32626396 -0.10817965 0.26095587 0.130499 0.3288347 0.058437973 -0.17024043 -0.13872553 0.02269471 -0.012753275 -0.15994056 0.037009865 -0.20944327 0.42711514 -0.06326901 -0.083101414 0.16044357 0.13278092
431 0.04580273 -0.23092866 -0.056255087 -0.029439483 -0.045984533 -0.35392204 0.07370096 0.009484871 0.09149325 0.13855204 -0.20651953 -0.15435223 0.24450783 0.1273923 0.5951326 0.054847613 -0.027975233 -0.23115446 0.061678227 -0.08856906 -0.05566953 -0.025220666 -0.085744455 -0.06902631 -0.12197099 0.2352335 0.18992771 -0.09433123 -0.07247513 0.031217098 0.25714216 -0.45913607 0.3419938 -0.07756838 -0.29775402 -0.22551343 -0.28701004 0.06658815 0.19964126 0.21291806 0.036521792 0.40732673 -0.114238374 -0.028704349 0.3918054 -0.1235358 0.19542149 0.21851039 -0.28673324 -0.0836776 0.018769465 0.13139884 -0.24252412 -0.050804857 -0.10978607 0.30933693 -0.094773635 0.11812176 0.25823617 0.011961226
139 -0.1739645 0.09690994 -0.14229178 0.18466192 0.14305103 -0.28046718 -0.016145078 -0.018169796 0.24319603 0.068184115 0.3277998 -0.1357612 0.21155782 -0.015669927 0.25376812 -0.117821805 -0.007535512 0.11469506 0.07400634 -0.09887077 0.07946647 0.20031865 0.033125512 -0.3828125 0.026929254 -0.04213374 -0.06745066 0.016491828 -0.13438869 -0.31550238 0.18478869 0.1567425 0.22030653 -0.26364678 0.3107013 -0.00786849 0.16787268 0.15754063 -0.18770984 -0.26661834 0.015067666 -0.03060079 -0.43553028 -0.11899459 0.12979658 0.005419799 0.24036641 -0.2287271 -0.04377372 0.070878215 0.0863855 -0.18466485 -0.2015921 0.020332318 -0.11732222 0.40412942 0.021656768 -0.35459545 -0.42671153 0.06789099
630 0.022173906 0.19372118 -0.13589045 0.06510346 0.2406226 -0.27265903 -0.1732019 0.0948017 0.18658753 0.10625092 -0.22104529 -0.20113572 0.06320023 -0.2189505 0.29015404 0.106581554 0.018298527 -0.107543185 -0.3611648 0.1923829 -0.09710619 -0.037667062 0.23867467 0.026425347 0.04601693 -0.11427808 -0.235155 -0.3098165 -0.15762626 -0.4332923 0.21545863 -0.023099342 0.01127996 0.13831483 0.17849945 -0.3256944 0.22723366 -0.31607625 0.015996927 -0.06279664 0.316079 0.106293105 -0.30140406 -0.08473541 0.35259953 -0.094362974 0.08167923 0.12763529 0.04397181 0.015179401 -0.1908305 -0.0005093124 0.06475353 0.3767951 -0.23695472 0.44869915 0.040478095 -0.27410406 0.25490993 0.35127783
261 0.39529544 0.03145247 -0.044190317 0.0026151517 0.0677811 0.19282338 0.017843017 -0.22143285 -0.13291126 -0.17835218 -0.076992825 -0.113954164 -0.047287926 -0.20522809 0.30186504 0.057889674 -0.018705275 0.11284566 -0.07913121 -0.017362747 -0.11685212 -0.042345993 -0.0008653421 -0.08335478 -0.24198382 -0.30056155 -0.0855995 -0.14000052 -0.3265542 -0.364768 0.21320075 0.16063718 0.1707435 0.24648893 0.053467132 -0.4729131 -0.008374139 -0.19955476 -0.1378771 -0.016946679 0.23739561 0.026501264 -0.4127142 -0.079865776 0.11401943 -0.2189135 0.2434413 -0.14350757 0.12027809 -0.25489125 0.0693856 -0.21232557 -0.08456307 0.038507234 -0.3667949 0.50167936 -0.016862668 -0.39249843 0.09387407 0.19759448
354 0.26236272 0.19632877 -0.08858179 -0.048813365 0.058365587 0.11831096 0.023617387 0.047185592 -0.22342196 -0.38794917 -0.17255889 -0.16454926 0.016411401 -0.22945198 0.6127515 0.085120164 -0.05240325 0.20959151 0.019230293 -0.067441955 -0.12641668 -0.11335473 -0.03795296 -0.11969789 -0.17654522 -0.2944032 0.10074816 -0.2579392 -0.104442015 -0.29005387 0.28674084 0.08833227 0.17714842 0.31646013 -0.058056995 -0.6146373 0.038915265 -0.10667239 -0.07809222 -0.047286175 0.15990359 0.11646988 -0.20647757 -0.26379994 0.08353869 -0.01226078 0.082960956 -0.081154175 0.04289223 -0.013809006 -0.057181202 -0.18040158 0.023756256 0.043768905 -0.1488105 0.59912086 -0.14591126 -0.20809224 0.11112322 -0.011155018
426 0.036100265 -0.05042455 -0.16834295 0.38369852 0.18261103 -0.04895105 0.2786937 -0.104945436 0.24919392 0.04010472 0.03954854 -0.035394274 -0.06012791 -0.5004062 0.33932108 0.035907894 -0.08972535 -0.075820155 -0.32819235 0.045302805 0.3000583 -0.25468495 0.05148707 -0.10730317 -0.10486444 0.5239467 -0.5042558 -0.029107977 -0.17481376 0.20330663 0.0058419015 -0.3229683 0.4546462 0.24421503 0.2902603 0.01914817 -0.0792846 0.18091433 -0.2091234 -0.21908502 0.22598776 0.20662937 0.08253153 0.19888774 0.04279478 0.1997745 0.38175365 -0.15356188 0.05342903 0.010566013 0.29055098 0.1339563 0.008430246 -0.22994944 0.15540607 0.3704449 -0.47936425 0.014924573 -0.14312881 0.19279516
451 0.22896972 0.08372503 0.123666875 -0.1718415 -0.044522636 -0.3017765 -0.042636015 0.07041179 0.00808256 -0.20718692 -0.07911907 -0.081028886 0.14686598 0.26940164 0.53540415 0.21537861 0.014539164 -0.32518753 -0.057194687 -0.11103949 0.06910173 0.11350175 0.04675636 0.007972032 -0.29341936 0.41397178 -0.1046717 -0.08713954 -0.11662734 -0.041891746 -0.014993804 -0.63673145 0.36614636 -0.11753187 -0.18955897 0.08014697 -0.18609677 0.15451618 -0.04431876 0.021499084 0.16478348 0.18665937 -0.1346945 -0.15743682 0.42867267 -0.09812753 0.3246626 0.46308693 -0.31254932 -0.031212198 -0.02900405 0.06366055 -0.07446495 0.09745882 0.011243958 0.4284591 -0.29951698 0.36854818 0.29428545 -0.22395845
320 -0.02717042 0.0010620792 -0.30819386 0.011844959 0.11593509 -0.22233717 -0.031838674 -0.013196716 0.19699793 -0.15581508 0.08339043 0.020285595 0.11956953 0.14761522 0.22801536 -0.25286227 -0.06275577 0.015886104 0.24903612 0.15139997 0.22812635 -0.0030887784 0.30959308 0.19508886 -0.08367131 0.08682634 -0.21801403 -0.035449244 -0.04038628 0.06306914 0.11149137 0.27351075 0.3376287 0.02531416 0.47463202 -0.381309 0.1135289 0.0745305 -0.3077295 -0.029509844 -0.025703007 0.12945296 -0.25586808 -0.18798104 0.053518288 0.11311908 0.24727602 -0.38837674 0.101521626 0.041990016 0.21201834 0.055263758 -0.18730366 0.15168108 -0.129203 0.3777624 -0.100851335 -0.11778771 0.27473843 0.14436138
363 -0.019701704 -0.08270608 0.014018198 0.18300237 -0.0119156735 -0.049591605 -0.0053418293 -0.218912 0.12060514 -0.055236757 0.43463933 -0.14126447 0.09673908 -0.33051598 0.14859994 -0.21484393 -0.16567399 0.075084314 -0.24894245 -0.050346058 0.099681415 0.07595083 0.021151619 -0.06160961 -0.29673824 0.011644622 -0.2584372 -0.27779463 0.07292788 -0.15693241 0.20341821 -0.19511731 0.44893578 0.100935765 0.23787233 -0.041803595 -0.15225591 -0.20827325 -0.1835778 -0.4100239 0.32965872 0.0927809 -0.31467387 0.016889479 0.039976716 -0.16951667 0.25734854 -0.18284994 -0.017599555 0.019531593 0.315206 -0.1921707 -0.12437493 -0.13905741 0.04003335 0.58053756 0.077738605 -0.28034803 0.04515697 0.2186491
351 0.035695184 0.07694035 -0.48118842 0.078686014 0.31784394 -0.4408396 -0.11669837 0.23117453 0.17611884 -0.038769912 0.012430494 -0.23116806 -0.1809815 -0.19244689 0.29045543 0.023458311 0.05626319 -0.10264816 -0.18070264 0.016446289 -0.16114518 -0.11907641 -0.041016076 -0.110973746 0.06859586 -0.21435465 -0.2624933 -0.3506078 -0.08184883 -0.35281464 0.061158057 0.0029078496 0.06290948 -0.07163714 0.033144347 -0.26188308 0.2568996 -0.13537355 0.14658871 0.09702158 0.30960992 0.20284984 -0.38769013 0.028241837 0.26055667 -0.04476026 0.30658042 -0.11100325 -0.0131550385 0.1804561 -0.23684113 -0.24060802 -0.05975543 0.073543936 -0.019621503 0.14554723 -0.17290893 -0.30969217 0.022285305 0.19592065
172 0.21668632 -0.2511737 0.16150755 -0.06583836 0.04070114 0.13462259 0.06043641 0.016291266 0.04530449 -0.2574072 -0.0057065943 -0.0722122 0.16942577 0.5214118 0.53222024 0.051749855 0.06210578 -0.20770973 -0.10884265 0.011990054 0.27899703 0.060315114 -0.05127359 0.0106882425 -0.2336776 0.2700152 -0.10548783 0.12963535 0.04414126 -0.03388143 -0.038749624 -0.59423894 0.17011559 -0.060648035 0.104074605 0.053949762 -0.12480691 -0.04832166 -0.064316034 0.18986715 0.028740786 0.32207903 -0.36932832 -0.125753 0.41959748 0.23130068 0.5659206 0.47763178 -0.36170796 -0.06601159 0.16597721 0.046446484 0.068095684 0.07251152 -0.14824696 0.067226276 -0.35235688 0.24499257 0.26172498 -0.21455117
524 0.0028916302 -0.1558992 0.11876739 -0.106954664 -0.14400381 0.12163229 -0.22144307 -0.086860456 -0.059278328 -0.118494 0.081960306 -0.21720988 -0.03654328 -0.09150439 0.4819205 0.15838727 0.05671224 -0.14268957 0.026978483 -0.18077374 0.15834194 -0.20148413 0.19983552 0.030310893 0.056854215 -0.15606135 -0.19195735 0.2266822 -0.31220993 -0.13560393 0.19275726 0.1849688 0.4133838 -0.14663881 0.31706765 -0.3692365 0.2571465 0.06142812 -0.23232542 0.08922661 0.28215486 0.10000924 -0.13470499 0.03162455 0.010344147 0.0165571 0.08886041 -0.39037 0.13083136 0.17703418 0.4882282 0.098684266 -0.30540207 -0.03759707 -0.28713176 0.21060689 0.12585688 -0.08229782 -0.0026157713 0.13892037
417 0.030018628 0.059243668 -0.04897503 0.13987778 0.25338873 -0.14064921 0.018968493 -0.21982019 0.017293172 0.00373768 -0.010497319 -0.10779563 0.3210218 0.08409706 -0.037946284 -0.17379966 0.12137174 0.10563369 0.0208752 0.040119056 0.09703212 -0.21085699 0.3577338 0.13865574 -0.17981623 -0.13402502 0.110617466 -0.36268824 -0.1956038 -0.43583453 0.25414154 0.023613345 0.1507516 -0.22860761 0.381757 -0.26579615 0.30410334 0.12861885 -0.3008903 -0.056406 0.16055416 0.19703254 0.05520327 -0.18252839 0.2974323 0.21868211 0.5265308 -0.2559531 0.1795746 -0.06778185 0.100526415 0.115061335 -0.07175758 0.33662304 -0.14159034 0.35088107 0.05016798 -0.10942948 0.5583885 0.38858357
112 0.37081325 -0.015018407 -0.17499949 0.00045691262 0.16945273 0.089628786 0.014583686 0.016435988 -0.13562047 -0.43697074 -0.19171412 -0.30967844 0.03598174 -0.2419839 0.4950446 0.13260065 0.1734427 0.15101962 -0.08255068 0.030439094 -0.2017324 -0.06972916 0.08309251 -0.111274704 -0.29827327 -0.3304271 0.12577353 -0.19570059 -0.048796635 -0.15300252 0.26984754 0.069022164 0.0678985 0.19524392 -0.0022137482 -0.58251595 0.11727227 -0.042110663 -0.047987238 -0.09534289 0.021238504 0.09512575 -0.29578844 -0.21875931 -0.04037528 -0.17327479 0.06535475 -0.045904826 0.13451365 -0.0141541995 0.0029954917 -0.29467905 0.07983022 0.051681172 -0.16329725 0.566945 -0.22558062 -0.14606574 0.11764624 0.075723484
230 0.22318445 -0.15116636 0.005189115 -0.013746354 -0.031941738 0.016187552 0.17407249 -0.28591907 0.16991241 -0.109179005 0.1827007 -0.07694148 -0.12551711 0.09324484 0.39279163 0.16193618 0.15052636 -0.001833159 -0.3347545 0.17778459 0.3508498 -0.18888718 0.21401116 -0.17076625 -0.32656994 0.0120346 -0.38918996 -0.16947287 0.061555345 0.19892892 0.20154434 0.11317934 0.38088652 -0.05190945 0.01747284 -0.20636483 -0.049622767 -0.039742786 0.027062755 -0.041351426 0.38654655 0.31766683 -0.46286702 0.07517963 0.15786014 0.020933928 0.18155955 0.14892322 0.0008193976 -0.16386153 0.12826093 0.32030064 0.39779323 0.068723865 0.090190805 0.28440234 0.0025867866 0.034148835 -0.10258689 -0.06886404
683 0.23063423 -0.22481415 -0.15324461 -0.13960977 -0.036325574 0.18626906 0.015370378 -0.15026262 0.2105312 -0.2575748 0.09598242 -0.17661043 -0.26569623 0.124534875 0.27136165 0.019975511 0.22601826 0.17265075 -0.3536896 0.1329397 0.3127046 0.07932373 0.39400285 -0.18704587 -0.21400975 0.011665932 -0.2960695 -0.08737701 0.046844088 0.065481625 0.3758864 0.21879636 0.45617396 -0.26741257 -0.09192865 -0.24606447 -0.12488239 0.29415306 0.027576927 0.007488626 0.25673622 0.39421928 -0.3953735 0.06792226 -0.0048909914 0.0073425807 0.071994886 0.24194373 -0.029514248 -0.0450775 -0.0012853219 0.17523704 0.54899716 -0.023668854 -0.073905624 0.3735719 -0.15645374 0.053966317 -0.09215704 -0.11882503
398 -0.005495263 0.055287044 -0.055370156 0.08294393 0.19882299 -0.18355525 0.08848348 -0.02731332 0.16190197 -0.25278655 0.3163055 -0.36398774 0.11046068 -0.014642729 0.25687206 -0.15901215 -0.29096353 -0.023793412 -0.030809138 -0.065688826 0.17587249 -0.006793289 -0.12010115 -0.34505 -0.033275012 0.043516573 -0.3047364 0.013765145 -0.15825085 -0.17624223 0.34882268 0.2893047 0.16769812 -0.17032862 0.19335581 -0.27238378 0.027140623 -0.1058878 -0.17685173 -0.3242239 0.08861913 0.3267452 -0.111800805 -0.20348153 0.13220698 0.25930455 0.14725105 -0.23125267 -0.048747033 0.16762812 -0.08323223 -0.09714633 -0.08009273 0.14432956 -0.12167479 0.5505548 0.09750065 -0.17014627 -0.32480207 0.05712159
445 -0.03094819 -0.1843905 -0.14551502 -0.032199055 0.1683036 -0.018663736 -0.0822227 -0.09733886 0.049279653 0.10490649 0.057925895 -0.0969411 -0.011649072 0.16469826 0.29996467 -0.33613816 0.18322869 0.044109184 0.14681302 0.24466819 -0.05288304 0.08856677 0.5440976 0.13688937 -0.050345566 0.11713373 0.12979378 -0.14107634 -0.28652766 0.01904088 0.3005991 0.09063305 0.021597795 0.09795094 0.3724039 -0.2754288 0.17487702 0.16285239 -0.28200018 0.005579671 0.046117626 0.04891891 -0.22401166 -0.1667493 0.06811146 0.02822618 0.09352821 -0.2996302 0.055505514 -0.022874286 -0.042478323 -0.28209034 -0.033078164 0.15135485 -0.018796153 0.42589545 0.1987715 -0.09176266 0.12416093 0.22426488
22 -0.052458856 -0.1700602 0.055640385 -0.03755456 0.32856616 -0.16658372 -0.18479282 0.12551792 0.3102402 0.05610393 0.29758757 -0.25094604 -0.107147954 -0.04403644 0.3606278 -0.20395778 -0.3201379 -0.09434073 -0.05045035 0.025796471 0.21445046 -0.06806613 0.04449776 -0.19470523 0.06139722 -0.048747078 -0.22975028 -0.043313984 -0.041116133 -0.16385825 0.40035465 0.12948859 0.06829989 -0.14822029 0.1756092 -0.34270936 -0.104246154 -0.14929451 -0.24933243 -0.07087977 0.13839921 0.22616543 -0.30810356 0.036640745 0.05126565 0.08832569 0.1266557 -0.10098844 -0.06838296 0.32847598 -0.27169833 -0.34909907 0.09562558 0.27717853 -0.20394313 0.57172835 0.008988895 -0.1975165 -0.25635687 0.027302543
485 -0.047547244 -0.10441828 -0.11089461 -0.26744175 0.17071421 0.061182614 -0.25062418 0.08930941 0.08741313 -0.26029605 0.096905865 -0.06381104 -0.14081822 0.088226594 0.30943587 -0.041267067 0.18420784 -0.018225186 -0.34409425 -0.015850399 0.0987498 -0.1424485 0.14166039 0.23334037 0.18992642 -0.03168565 -0.10051291 -0.29251617 -0.3563593 -0.40894875 0.03643274 0.18833575 -0.017303849 -0.10753687 0.070831105 -0.17274716 0.0044346936 -0.41780615 -0.17230903 -0.035652593 0.15105435 0.24950346 -0.24812469 -0.06987964 0.37111324 0.0614602 0.29612222 0.24676418 -0.08034627 0.068848595 -0.27905592 -0.1811053 -0.0015049618 0.13876468 -0.057780445 0.26617154 -0.33319268 0.009653441 -0.22398816 0.34819385
74 0.38004044 -0.023586225 0.1588889 -0.12765822 0.11322796 0.11488357 -0.09935103 -0.026506986 -0.3607213 -0.2820512 -0.13938504 0.15831845 -0.202135 -0.19182882 0.49904963 -0.04965696 0.10437376 0.30068925 -0.09486829 -0.10566014 0.027201062 0.071337506 0.07521882 -0.16070038 0.048950426 -0.079864874 0.26109892 -0.067527555 0.17242466 -0.17782333 0.41567075 0.029099574 -0.0014528149 0.01876361 0.1520065 -0.55803716 -0.055732086 0.23046538 -0.2121335 0.15417466 0.37287325 -0.05304969 -0.06490148 -0.021316886 0.36866266 -0.20974766 0.016358826 0.01955494 0.22146416 0.08528332 0.03576078 -0.47010416 0.29106605 0.24052608 -0.306676 0.864841 -0.06242153 0.25109467 0.062287707 0.18432821
414 -0.0921295 0.03459391 0.087042116 -0.033087604 0.21296895 0.118988566 0.1460302 -0.29410782 0.15151231 -0.09587184 0.031439014 0.119126625 -0.062017918 0.10129744 0.036567032 0.05149308 -0.0020884548 -0.015065916 -0.23439945 0.018183492 0.37867522 0.11807902 0.25215 -0.27615502 -0.522686 0.18775599 -0.5063658 -0.4384757 0.19609323 -0.06275735 0.31395346 0.1551497 0.4188358 -0.069535784 -0.23741391 -0.58160025 0.28341976 0.48069844 -0.057514727 0.0683607 0.25971556 0.52768886 -0.16112839 0.19636546 0.2703897 -0.084361844 0.16015331 0.07906764 0.42546085 0.09356231 -0.010318163 0.3538662 -0.057323184 -0.06014462 0.15170613 0.3047012 -0.2735253 0.0795729 -0.005970806 -0.07814375
393 -0.04759095 -0.22658333 0.0011114302 0.045703977 0.0903916 -0.15795599 -0.03254758 -0.08613211 0.25810462 -0.013954998 0.2764656 -0.19855872 0.1380904 -0.16128603 0.21984583 -0.056373626 -0.20821281 -0.0018747009 -0.06458228 -0.098189846 0.06735189 -0.041502025 3.092455e-05 -0.122471824 0.044511516 0.08605584 -0.17934403 -0.014568461 -0.038774308 -0.14380905 0.16924126 0.2050951 0.24524838 -0.027395457 0.21230039 -0.14687616 -0.107902005 -0.038098365 -0.19570103 -0.2256786 0.26255056 0.3231602 -0.29711396 -0.078821994 0.11810928 0.18320855 0.14154933 -0.18588375 -0.016376495 0.061101332 0.057347596 -0.24874003 0.093527704 0.21924572 -0.079358734 0.5317072 0.16428553 -0.14385934 -0.28980887 0.21116626
257 0.13871652 0.13670258 -0.095216006 -0.104027756 0.26903316 -0.23943797 -0.2452718 -0.1056163 -0.023530057 -0.07610082 -0.13450046 -0.100691974 0.021370245 -0.003456046 0.41925275 -0.0383879 -0.0022889744 -0.17159002 -0.23754635 -0.02426539 0.038786776 0.033600144 -0.067562565 -0.15807652 0.016218552 -0.3357469 -0.24106675 -0.23938523 -0.19064243 -0.49269295 0.3234147 -0.0047896 -0.031916928 0.12921065 0.0010804009 -0.6620369 -0.085845724 -0.059873275 -0.09011721 0.042874638 0.23925118 0.14308332 -0.21673883 0.12521195 0.0695572 0.008196239 -0.0039681373 -0.04093961 -0.017831316 -0.05108652 -0.2620232 -0.18335044 -0.051821798 0.22528094 -0.06519072 0.3177935 -0.34534666 -0.32735115 -0.006284011 0.2933498
631 0.028291844 -0.236671 0.008505439 -0.016473886 -0.101115696 0.05850242 -0.23166087 0.03003531 -0.10700455 -0.17089742 -0.0035494703 -0.26668137 0.021745564 -0.16241814 0.4737071 0.07062793 -0.08454851 -0.02136668 -0.037840247 -0.11301577 0.042316377 -0.13222253 0.08810138 -0.010142762 0.03207666 0.013592048 -0.19849364 0.19740702 -0.34276515 -0.0555251 0.14982909 0.3651958 0.3857648 -0.19600944 0.34626073 -0.083496824 0.37615398 -0.058016896 -0.026658688 0.08869479 0.27072516 0.1043791 -0.20211276 -0.034506895 0.041053507 0.05967872 0.14368165 -0.3664197 0.11646423 0.19546235 0.4384738 0.015766967 -0.30136114 -0.016524505 -0.16999854 0.38605517 0.12410891 -0.1497015 -0.01935761 0.12208849
586 0.10223551 -0.18001232 0.16052343 -0.1504401 0.1660851 0.15656495 -0.021592755 0.12005306 0.030329084 -0.30248952 -0.0054552774 -0.032192748 0.15715224 0.5096573 0.45962062 0.10546106 -0.011763467 -0.19700086 -0.06310602 0.041297134 0.37212196 -0.06420764 0.14907847 0.017252145 -0.32206324 0.24075027 -0.027591424 0.14877765 -0.023435319 -0.20358817 -0.052981924 -0.4734027 -0.011363097 -0.1499251 -0.05955549 -0.011824985 -0.10530238 0.052410495 -0.14256664 0.16773486 0.17473756 0.30908698 -0.45980275 -0.22696595 0.4893243 0.17393339 0.42720044 0.37399992 -0.3801262 -0.038202178 0.092730425 -0.104741745 0.101746775 0.17968507 -0.047858644 0.059283383 -0.36967465 0.23240444 0.24106193 -0.36412492
632 -0.1528237 -0.19796178 -0.00023477025 0.34223557 0.15165298 -0.20812574 -0.093121484 -0.20570496 0.1858837 -0.0027725229 0.17035256 -0.20977888 0.2303922 0.0037471454 0.08328381 -0.056782942 -0.040306535 0.043735787 0.09538823 -0.037725087 0.08315876 -0.088641845 0.04998617 -0.25151667 -0.15004979 -0.1097979 -0.032061856 -0.13395055 0.05460174 -0.35606828 0.31017488 0.11982748 0.40090087 -0.045251515 0.4669111 -0.11015836 -0.03912326 -0.019291392 -0.016098075 -0.35876423 0.13114412 0.036793306 -0.43672058 -0.1352467 0.22701682 -0.038826782 0.11927203 -0.24247316 0.048815794 0.015675109 0.10959958 -0.014077688 -0.20342739 0.043226644 -0.007750952 0.3654781 0.07631922 -0.2187318 -0.22835016 0.09572625
198 0.26443842 -0.34300992 0.19839327 -0.050187852 0.11096457 0.13917892 0.012609067 0.06542973 0.14395179 -0.2505964 -0.18392095 -0.22427851 0.26733467 0.43352586 0.43989554 0.043294013 0.11355632 -0.2416568 -0.0491509 0.13384685 0.26355186 0.07107362 0.038380243 0.06824488 -0.29920712 0.24645032 0.007971453 0.11327514 0.0727063 -0.019472515 -0.071124144 -0.45084447 0.1380584 -0.11963197 0.08767646 0.053805187 -0.060040686 -0.09304435 -0.15155122 0.057040263 0.13155681 0.34743333 -0.42389074 -0.24573897 0.40129575 0.2766307 0.36837775 0.5088697 -0.38903943 -0.04342624 0.15745297 -0.05038615 0.021155002 0.17690755 -0.100935996 0.08478662 -0.3469743 0.25265667 0.23528963 -0.23840407
195 0.13477519 -0.06384177 -0.14575772 -0.27956277 0.24245377 -0.18988939 0.17265716 -0.18439299 0.30238253 -0.26905063 0.06617513 0.28235826 -0.17803499 0.4181732 0.63679075 -0.34804574 -0.073345475 -0.0145964725 0.04827136 0.3228215 0.07225606 -0.018021028 0.39292702 0.3109827 -0.20587794 -0.026403252 -0.1780531 0.07781566 -0.2537548 -0.009168615 -0.0056434846 0.044607032 0.27352396 -0.051545933 0.22684726 -0.3227186 0.23585911 -0.035614848 -0.23172495 -0.2595929 -0.09308252 0.0027060534 -0.287313 -0.3283829 0.05813959 0.38404477 0.14866449 -0.27628997 0.13108218 -0.08341904 0.13778062 -0.2649642 -0.080094926 0.1458518 0.079640836 0.28483343 -0.05702057 -0.2256391 0.20467167 -0.03447968
124 -0.004174996 0.008786655 0.02904688 -0.07187048 -0.123143606 -0.1411734 0.11841143 -0.10334067 -0.096806385 -0.007979211 -0.037637934 -0.14401008 0.056447644 0.26044938 0.46858618 -0.05013879 -0.10672346 -0.26155376 -0.029805997 0.11368472 0.17597327 -0.070695706 0.06129525 -0.06451684 0.04660371 0.37478557 0.057020575 0.16012377 -0.114378825 -0.16069512 0.1794016 -0.6311295 0.1538385 -0.31875435 -0.07420308 0.061256178 -0.13664098 0.10300084 0.27718586 0.069167756 -0.14776035 0.35415158 -0.06882276 -0.059606384 0.32978603 0.09003869 0.55622643 0.31370598 -0.20990448 -0.0102839125 0.17571081 -0.050090235 -0.036269143 0.1558009 0.06928859 0.47853747 -0.24569917 0.03195481 0.12354608 -0.1362973
123 -0.24116929 -0.05469115 -0.15934108 0.20791441 0.45891178 -0.16394542 -0.29277062 0.113447495 0.3501129 -0.39385054 0.28935418 -0.31438532 0.06628357 0.05594446 0.33608618 -0.46514258 -0.24176978 -0.059102338 0.13308565 0.3315453 0.5217915 0.091374256 0.031948235 -0.112709075 -0.10610494 0.044508483 -0.25976145 -0.17399772 -0.07694894 0.10211195 0.29605895 0.27660355 0.09608382 0.091428064 0.3121712 -0.19937529 -0.16583952 -0.08522228 -0.12274032 -0.07014461 0.11834443 0.08149815 -0.14663057 -0.12797847 0.17342652 0.14746882 0.18242675 -0.37291384 0.112389505 0.078652665 -0.05683716 -0.12111777 -0.14984354 0.2886581 -0.4026225 0.5623501 -0.050774578 -0.09468961 -0.18118878 -0.15846081
247 0.18523717 -0.098320596 -0.069228634 -0.24111693 0.08606476 -0.11471819 0.041847974 -0.0030315812 0.17967759 -0.19156717 -0.13461034 0.31954896 0.053668354 0.37445983 0.10635917 -0.3339607 0.02914654 0.061786965 0.012152421 0.10321161 0.025138326 -0.14187439 0.33083886 0.16805483 -0.21147105 0.16087751 -0.1648108 -0.19640455 -0.08241661 -0.014228144 0.10842491 0.22245508 0.12808979 0.014549913 0.5213098 -0.34990093 0.35757378 -0.15563793 -0.34738287 -0.17956217 0.015199526 0.3346388 -0.21730794 -0.4030764 0.03049642 0.3405342 0.43868962 -0.20865902 0.03513287 -0.04981671 0.16507721 -0.2104216 -0.33556503 0.07760695 -0.036717787 0.24898721 -0.32050094 0.020100968 0.5471123 0.010329361
618 0.040676244 -0.08491378 -0.15429981 0.053910375 0.21133257 -0.34578827 0.00712493 -0.032430336 0.22403389 -0.11747752 0.24044521 -0.1836903 0.09539885 -0.14356467 0.27884948 -0.14013495 -0.24919416 0.15628375 -0.09224683 -0.17668733 0.03534867 0.11476801 -0.049163237 -0.28667524 0.1186038 -0.066242374 -0.11799807 -0.15288444 0.10855711 -0.09273855 0.15493044 0.18691622 0.35593864 -0.18854913 0.43763798 -0.07506568 0.09075267 -0.06385223 -0.120950274 -0.33635288 0.2803109 0.24565113 -0.38215914 -0.11287872 0.11828853 0.04086894 0.28238595 -0.21187903 -0.11860134 0.2815695 0.09023986 -0.126151 -0.209946 0.1220147 0.036802478 0.3879672 0.020573106 -0.26731265 -0.293392 0.20543727
386 0.115429565 -0.17439535 -0.115550295 0.040286772 0.25775284 0.027643178 -0.23438375 0.04797322 0.17997701 -0.03971196 0.3301311 -0.25326267 -0.07292989 0.0012411755 0.011533722 -0.14547287 -0.24112362 0.21964099 -0.3418856 0.044200838 0.10834612 -0.007569281 -0.051912233 -0.15714997 -0.31256488 0.24175157 -0.24211594 -0.08431549 -0.3338727 -0.20996799 0.20432773 0.14687116 0.2634886 0.061550256 0.28086513 -0.17398235 0.083692856 -0.15498118 -0.18067439 -0.03870227 0.24587204 0.051790953 -0.23277214 -0.04846441 0.14517541 0.058715872 0.1681641 -0.1476193 -0.08150148 0.16728179 0.3820537 -0.2260114 -0.11628752 0.02118078 -0.23160438 0.436573 0.22560826 -0.28603435 -0.060604677 0.27635512
292 -0.04514469 -0.16380455 -0.15264067 -0.23640421 0.23345664 -0.23271482 0.28152007 -0.15332983 0.2558123 -0.26761985 -0.031300973 0.22185108 -0.15541385 0.37236136 0.59480125 -0.37091267 0.054622322 0.009099286 0.052815337 0.31573698 0.19322644 -0.095363945 0.5094637 0.34969524 -0.13870771 -0.105672985 -0.18634503 0.04298623 -0.14726777 0.075459406 0.10157835 0.0071656844 0.23980944 0.09654965 0.31703076 -0.2668078 0.16237807 -0.107477024 -0.22345479 -0.18970259 -0.08807738 0.00026593232 -0.242695 -0.284587 0.036088213 0.29071915 0.16867591 -0.24057594 0.073657714 -0.14362633 0.22285374 -0.26074007 -0.14481962 0.101214245 -0.06941319 0.3003816 -0.13025485 -0.22360083 0.1463599 -0.0821931
479 -0.26962835 -0.3045078 0.10783392 -0.2549178 -0.15847388 0.08656639 -0.24374355 -0.13303243 -0.11002595 -0.042576212 -0.21860634 -0.25616425 0.16729994 -0.09446463 0.52663946 0.18129408 0.09011497 -0.10180762 -0.043969765 -0.057847597 0.01973384 -0.32269955 0.28369325 0.039345495 -0.08468986 -0.35394102 0.060039423 0.24244896 -0.20642234 0.051189076 0.11038718 0.09204898 0.14651379 -0.19877769 0.014540399 -0.2130865 0.35803816 0.01894136 -0.39294535 0.16706215 0.2360409 0.18831824 -0.21194285 -0.036891744 0.0970437 0.16360924 -0.059242945 -0.28480494 0.003023564 0.18726008 0.2791686 0.041661285 -0.54998803 -0.21041027 -0.22583225 0.36813512 0.10658087 -0.22331288 0.18349822 -0.01870698
72 0.18569718 -0.29052973 0.033611014 0.18240738 0.040681813 -0.08917616 -0.019465195 -0.08622284 0.37543172 -0.081351645 -0.039684813 -0.035119623 -0.063375615 -0.2755627 0.1570266 0.16515508 0.20142633 0.075824775 0.123869665 0.04245308 0.2540591 -0.31382635 0.03383312 0.06613593 0.22902526 0.44937104 -0.26948863 -0.07710787 -0.21527676 -0.22977418 -0.004005435 0.14102733 0.2870314 0.08942818 -0.058069676 -0.057256937 -0.05307287 0.21933365 -0.28186783 -0.36591578 0.14166732 0.37771642 -0.014298206 -0.09451125 0.16904306 0.3686092 0.02861812 -0.2969628 -0.10619156 0.47595364 0.21229175 -0.12621146 0.33192798 0.05437202 -0.22929394 0.5007941 -0.15166503 -0.44528157 -0.14039321 0.32937363
41 -0.09103765 -0.0836051 0.26286757 0.09591655 0.30151516 -0.14147237 0.026024565 0.25450745 0.01333418 0.17822193 -0.20985872 -0.17398989 -0.040139604 -0.1304001 0.24749461 -0.08255633 -0.0059059607 -0.1340753 -0.16150267 0.051516276 0.26118124 0.03102286 0.15860353 -0.1802791 0.11159603 0.008629183 -0.5624011 0.047336943 -0.16686523 -0.18019815 -0.015277655 0.15348057 0.1068757 -0.069809094 0.45539036 -0.5369906 0.09937454 -0.017816076 -0.27235872 -0.20466033 0.10437945 0.4906645 -0.2521634 0.14612609 0.07196517 0.028240152 0.16511571 -0.26322398 0.13240533 -0.046309397 0.14342314 -0.08946275 -0.16070965 0.16261104 -0.05033742 0.37780806 -0.08993386 -0.19996965 -0.42197412 0.07925047
258 0.01463373 -0.18623108 -0.091271244 0.06195972 0.29287532 -0.15841816 -0.10705474 0.17661767 0.26063207 -0.0065229535 0.32781428 -0.31336418 0.091579184 -0.048996784 0.321438 -0.1674175 -0.21358813 0.088434756 -0.0855375 -0.117988735 0.124492615 -0.020613438 -0.009328383 -0.21264426 -0.094216295 0.24243674 -0.1386981 -0.17856547 -0.09374757 -0.08413564 0.1442621 0.35435256 0.15628968 -0.21058431 0.21156953 -0.17430374 0.013341438 -0.17754318 -0.09035826 -0.113333374 0.086296186 0.28007236 -0.12629138 -0.17133205 0.21512866 0.1772415 0.17659724 -0.15651423 -0.020502973 0.12345767 0.10895359 -0.15139663 -0.1334417 0.20228858 -0.23473525 0.41133884 -0.08928327 -0.25458646 -0.3306936 0.09705604
701 0.11422049 -0.25037214 -0.016736785 -0.18768805 -0.092983335 0.11241715 -0.18515062 -0.050514076 0.17075956 -0.08691088 0.08178715 -0.14716779 0.063466646 -0.12669568 0.43856856 0.009000557 -0.06690872 -0.007660274 -0.16089012 -0.052033957 0.085555345 -0.1081612 0.1586863 0.097686246 0.06661392 0.15996468 -0.40214264 0.18725218 -0.27212813 -0.0808611 0.18732642 0.34764373 0.29030684 -0.16460486 0.3206975 -0.26848644 0.2031116 -0.10140216 0.041144226 0.03814026 0.30780405 0.2693178 -0.087698326 0.011980627 -0.0022321313 0.19555208 0.071133256 -0.33399108 0.079095654 0.11760942 0.35714006 -0.048140913 -0.15580215 -0.078734204 -0.23407559 0.36290765 -0.045818668 -0.17519282 -0.0042711166 0.04688249
627 -0.106685326 -0.22894022 0.03680694 -0.09910029 -0.21020281 0.056091465 -0.29986447 -0.09812795 -0.10196347 -0.20157981 -0.0701327 -0.36628217 -0.13242257 -0.12284025 0.40554082 0.21800573 0.06413342 -0.20942713 0.028642375 -0.08070823 0.13028468 -0.15344125 0.33127007 0.09231515 -0.007457201 -0.1755224 -0.109151445 0.20443898 -0.18392505 -0.17302299 0.1590148 0.37064657 0.19641483 -0.1071911 0.34718 -0.3694402 0.24430491 -0.0639162 -0.2522247 -0.044319842 0.32972878 0.29170436 -0.2058091 -0.022053048 -0.13832499 0.14009911 0.09543279 -0.42452192 -0.040479343 0.21225527 0.48941633 -0.01979007 -0.20010065 -0.1649469 -0.21833038 0.30489132 0.12385765 -0.019565582 0.09237512 0.052993342
710 -0.04738271 -0.21833019 0.052575007 0.22281885 -0.019262305 -0.31475663 0.202579 -0.14806876 -0.039495155 -0.083556116 -0.015541751 0.08744506 0.3249932 0.20090066 0.6234021 0.22723365 -0.10208317 -0.2418554 -0.015502218 0.0905365 0.17718118 0.040496957 -0.1053335 0.19602972 -0.10754195 0.31813338 -0.106477946 0.3073084 -0.15958731 -0.18468027 0.07110433 -0.7417495 0.21075392 -0.18453161 -0.049984656 0.12837756 -0.11100567 0.019191736 -0.05716002 0.35026723 -0.16858676 0.2601837 -0.3617439 -0.17629226 0.48573703 0.18373035 0.4764713 0.1769142 -0.347413 -0.07253724 0.16274568 0.09528594 0.03252986 0.10482279 0.06753171 0.1697247 -0.22993866 0.10907534 0.24163297 -0.29597223
113 -0.07562452 -0.22113429 -0.18155028 0.035371985 0.24515307 -0.262882 0.21381877 -0.08332277 0.13059115 -0.050642572 0.20500706 -0.0949605 0.10131399 0.068014726 0.22562785 -0.079359375 0.12501027 -0.12880279 0.13015158 -0.022415448 0.43248323 0.040733255 0.30039945 0.048164457 -0.25352925 0.05588789 -0.05025343 -0.2378429 -0.37523025 0.030078487 0.16430521 0.23767418 0.070004106 -0.0889744 0.28971654 -0.2821873 0.14882903 -0.10835507 -0.1949683 0.07054998 0.22946881 0.070963904 0.011144256 0.12146028 0.019758739 0.035843667 0.47538564 -0.30672854 0.28299338 0.24720706 0.13515645 -0.07372696 -0.1766778 0.23805961 -0.004378024 0.3778556 0.06087872 -0.10189151 0.03408363 0.18750963
308 -0.09514847 -0.28451693 0.06305325 -0.36081704 -0.23799334 0.38147715 -0.33627036 -0.01879436 -0.07798733 -0.2132401 -0.10441827 -0.26406637 -0.026398335 -0.0721492 0.5173811 0.04530195 0.27606583 -0.059628893 0.056147516 -0.21144906 0.14490154 -0.21090595 0.18994738 0.02081518 0.09215677 -0.31070444 -0.09324053 0.184022 -0.114773914 -0.16677791 0.23634306 0.26059893 0.11043222 -0.18100172 0.17411463 -0.3667778 0.36033672 -0.1408602 -0.3085231 0.076407544 0.38261813 0.18544823 -0.15740243 -0.17568864 -0.0712048 0.12235331 0.2859707 -0.30944458 0.04505777 0.08178748 0.44231567 -0.08191857 -0.20043679 -0.1480907 -0.08936786 0.21242142 0.0041377177 0.0062268307 0.2413078 0.090480275
807 -0.27627552 -0.12249367 -0.12718943 0.058942366 0.14768915 -0.1994747 0.1756457 -0.08755701 0.17619164 -0.15070203 0.10464223 -0.050559282 0.07325368 0.23687126 0.42382264 -0.19615848 0.36669248 0.10766334 -0.03826138 0.28796566 0.12713498 -0.06327738 0.3353697 0.049687337 -0.20950724 -0.013169281 -0.07146004 -0.2896102 -0.13651146 -0.075383656 0.26900384 0.16275142 0.118697874 0.07763111 0.3619116 -0.29772162 0.026443085 0.03736027 -0.10899089 -0.085643254 -0.20900051 -0.07878068 -0.22854644 -0.0134452665 0.18294989 0.06995564 0.07438484 -0.38964316 -0.017016256 -0.16134033 -0.17266507 -0.05414061 -0.24177746 0.25314033 0.09507994 0.3234492 -0.03234191 -0.12953945 0.19160067 -0.018039567
367 0.030287655 -0.28787124 -0.009836214 0.4270865 0.03229794 -0.16170031 -0.064834096 -0.11624227 0.3142135 -0.13137035 0.075720616 -0.027109357 0.01009559 -0.3421102 0.25619218 0.026896296 0.36529377 0.04532505 0.18015397 0.11232237 0.35348883 -0.12660074 0.035361167 -0.031533856 0.23705295 0.42920145 -0.20719637 -0.29854035 -0.21384893 -0.10269391 0.17343985 0.26071084 0.32764164 0.33441806 0.07768059 0.11480149 -0.008313387 0.23667681 -0.3019793 -0.108196914 0.16714962 0.19731988 -0.030895712 -0.22813535 0.2825463 0.27892068 -0.061861306 -0.11433444 0.03789132 0.42321765 0.2960143 -0.13861752 0.3392448 -0.048872203 -0.49045366 0.32972953 -0.25306568 -0.22847374 -0.237557 0.17777948
579 -0.056499507 -0.1781155 -0.16873997 -0.1028078 0.29397815 0.021123173 0.060919914 0.11196652 0.2401293 -0.40600923 0.38128674 -0.21346214 0.0021090575 0.30165133 0.2622084 -0.29497012 -0.018120661 0.055947755 0.012076856 0.070199795 0.18037812 0.18750885 0.042009514 -0.13398038 -0.05586763 0.021901876 -0.17719199 -0.18816963 -0.10627401 0.02721555 0.16498423 0.22323464 0.035538994 -0.062287804 0.35460848 -0.32048553 0.019900296 -0.23281147 -0.37085745 -0.11018182 0.027701948 0.21596459 -0.1513029 -0.14584312 0.32462093 0.303512 0.1794978 -0.14422432 -0.19898386 -0.20950206 -0.21842316 -0.08310771 -0.11273473 0.2686971 -0.24429351 0.4201923 0.05935554 -0.08832814 -0.087417684 0.1806108
204 -0.10513983 0.06808114 -0.012848129 -0.04177003 0.25789645 -0.011822423 -0.009885741 0.005972395 0.34839857 -0.35473633 0.2386275 -0.33326387 0.02573643 0.35661295 0.2480807 -0.23679885 0.04893547 -0.10508883 0.010165184 0.25390974 0.17118277 0.067579575 0.24011382 -0.14728923 -0.15017602 0.05253768 -0.1713486 -0.2031597 -0.17370269 0.07292692 0.13352188 0.29224497 -0.033249915 -0.08856464 0.3096965 -0.30771685 0.029503599 -0.5755669 -0.34144366 0.008032176 0.1099234 0.33182058 -0.20030311 -0.08694984 0.2612172 0.23672287 0.14121738 -0.02223319 -0.08079735 -0.16165163 -0.24296713 -0.020700727 -0.08991516 0.120213345 -0.2170688 0.42006838 -0.072604656 -0.025582088 -0.120378114 -0.045324743
582 0.023839695 0.063706666 -0.09428191 0.32418436 -0.26328558 -0.33665833 0.006927545 -0.13145198 0.036675915 0.18128243 0.008615569 -0.35755408 0.28120735 0.276676 0.41311777 -0.0566243 0.036388967 -0.050962575 0.090447865 0.32015774 0.11215167 -0.30014572 -0.01625179 0.02171974 -0.016988471 0.40356186 0.1537196 0.27580613 -0.27480936 -0.062337555 0.08991321 -0.72479016 0.24110863 -0.14077759 0.1391851 -0.05114802 -0.080992565 0.29576102 0.09662811 0.078699864 -0.36284265 0.28775463 -0.0873271 0.16569728 0.3172604 -0.123007976 0.31024757 0.1916734 -0.32234716 -0.0028621291 -0.08831891 -0.04974055 -0.2619645 0.081125274 -0.12802604 0.19313167 -0.12517084 0.015540406 0.03441764 0.02705577
446 0.052632425 -0.31715828 0.043815866 -0.21636663 -0.06328616 0.03487802 -0.11175971 0.03485095 0.07436747 -0.04396139 0.054014195 -0.11622633 -0.060750168 0.02126177 0.436818 -0.018725196 0.07426632 0.05595938 -0.20383225 0.07821854 0.19448279 -0.005818619 0.34145036 0.13828842 0.041952338 0.010821371 -0.47442722 0.25018123 -0.18819611 -0.053722166 0.20218973 0.13155018 0.30775815 -0.18560287 0.36635208 -0.28621906 0.28819317 0.074837334 -0.19409792 -0.20926712 0.15158367 0.2949484 -0.17005144 0.047002953 -0.1498427 0.022137225 0.090741746 -0.36790308 0.21683237 0.065715775 0.36990345 -0.10274424 -0.26427925 -0.13352926 -0.23410594 0.30720976 -0.09499098 -0.13836682 0.08503821 -0.046465397
114 0.2855608 0.09963097 -0.09073475 0.09271465 0.24126865 0.1149587 -0.0028980835 -0.03096329 -0.2031424 -0.2757701 -0.08418949 -0.13554451 0.19223924 -0.37024674 0.60370743 0.15264174 0.021368366 0.116600685 -0.05126846 -0.021447815 -0.15162125 0.058569487 0.028242419 -0.06171238 -0.24828292 -0.23905486 0.091910556 -0.3519562 -0.079747885 -0.20909162 0.24423578 -0.006637918 0.17069791 0.31489393 -0.0065934286 -0.5060949 0.15241455 -0.21716167 -0.12194768 -0.03334216 0.18228886 0.083600454 -0.1600652 -0.20391472 0.0590666 -0.22100139 0.14108956 -0.18407659 0.20938312 -0.061838254 -0.112324074 -0.31941617 -0.012833609 0.090362795 -0.029783377 0.5618629 -0.25434905 -0.23196232 0.10752912 0.07137573
753 0.022768287 -0.16215803 0.060745183 0.06424155 0.26523 -0.16239229 0.014125215 0.037856568 -0.00858816 0.18273629 0.32919234 -0.14292417 -0.057082955 -0.18415552 0.32629448 -0.030528244 -0.1261714 0.009615823 0.06991503 -0.13728836 0.19045186 0.08402223 0.03902895 -0.3255891 0.027550148 -0.0020861228 -0.2599377 -0.12275376 -0.08232265 -0.15463167 0.2568752 0.16174273 0.28953373 -0.121462464 0.3859357 -0.25383738 -0.0038410677 -0.06004334 -0.26884204 -0.22816782 0.08077459 0.36464193 -0.17805856 -0.025673637 0.26383862 0.16622715 0.116058365 -0.18231927 0.07815207 0.24007486 0.003619901 -0.2791538 0.0558132 0.20519851 -0.1407124 0.43026674 0.0325434 -0.17512898 -0.30245334 0.11778081
488 0.16692024 -0.19787174 -0.13922355 -0.08800076 0.11022399 -0.19026428 -0.15632151 0.07991754 -0.014000051 0.067747705 -0.06183849 -0.15386918 -0.15869749 -0.14115003 0.27860078 -0.23914212 0.15862176 0.071074694 -0.15041699 -0.19390966 -0.08226771 0.0942741 0.11549744 -0.1906787 -0.03618788 -0.1443439 0.23159286 -0.1473214 -0.19155212 -0.089211345 0.06450515 -0.1201867 0.26921442 0.23080382 -0.062434554 -0.492953 0.13647829 0.032034118 -0.067502275 0.23842141 0.31465998 0.33289456 -0.14918245 0.05241076 0.17762946 -0.16032563 0.008793308 -0.10282772 0.17850876 0.026098343 -0.033613827 -0.22216862 0.116120815 0.27607608 -0.2619295 0.34736857 -0.2933778 -0.17709912 0.04310591 0.06806651
715 0.0014950483 -0.33362943 0.0064745676 0.14248706 0.020198267 -0.12224934 -0.11427753 -0.009557056 0.3942977 -0.23334315 0.009871172 -0.13722552 0.07467171 -0.24330279 0.21092334 0.02250558 0.2722152 0.23033564 0.06920287 0.11891691 0.36432537 -0.1681762 -0.029581118 -0.09178211 0.26332358 0.43525583 -0.2378118 -0.26730552 -0.20740195 -0.11465832 0.12029319 0.1675102 0.4536239 0.21071427 0.05784572 0.06345321 -0.10249285 0.28043085 -0.20411842 -0.31164265 0.2501595 0.16364704 -0.0978524 -0.068014555 0.13500322 0.4257115 0.11436999 -0.22568765 0.028407088 0.4757141 0.3252853 0.022639275 0.16971815 -0.1079722 -0.45375577 0.36495718 -0.22211944 -0.47994694 -0.16524386 0.08396391
692 -0.008860932 -0.3412929 0.09839626 0.25049964 0.13256946 -0.11934041 -0.0033058263 -0.017546559 0.31581545 -0.14632572 -0.075709 -0.040738504 0.02016305 -0.2652623 0.15096027 0.21904236 0.2587537 0.20951016 0.06971697 -0.17354466 0.23325254 -0.23710415 0.050783064 -0.059412327 0.17238216 0.56461626 -0.26614386 -0.1979192 -0.19713902 -0.122610845 0.09443435 0.12667345 0.29737303 0.17287219 -0.023785973 -0.11355139 0.019111058 0.11935801 -0.23262551 -0.29430485 0.21481018 0.3056309 -0.07462617 -0.027295936 0.08250984 0.4930757 0.096925035 -0.27787048 -0.05710482 0.462919 0.2614905 -0.08840843 0.15665741 -0.093649864 -0.2811738 0.40793368 -0.13633387 -0.5081869 -0.063405626 0.25575855
489 0.05805883 -0.16362126 -0.00031187988 0.0033002156 0.11584497 0.0734962 -0.08265438 0.17439902 -0.050973512 -0.058671027 -0.034822628 -0.0808221 -0.21097042 0.19684096 0.57671726 -0.11293855 -0.21099564 0.134368 0.015030643 0.3217407 0.3420855 -0.09393811 0.066189624 0.12373973 -0.024712125 0.17304374 0.07509372 -0.28487003 0.054058217 -0.03645056 0.29375088 0.40737212 0.39558992 0.233937 0.15887703 -0.37401104 0.35150713 -0.14338607 -0.14590174 0.123737924 0.061053112 -0.14820273 -0.009937225 -0.0069492403 0.19464792 0.07090977 0.18132448 -0.34402516 0.028649163 0.33062887 -0.048573803 -0.09538218 0.02960929 0.25508738 -0.14765665 0.6455302 -0.08804702 0.08137189 -0.13830814 0.23037235
732 -0.060926143 0.13353153 -0.13326181 -0.15988804 0.2169579 0.08908899 -0.271097 0.020727357 0.18843466 -0.35177362 0.12863714 -0.07931361 -0.110494316 -0.026548205 0.07632213 -0.19278951 0.098006114 -0.121571034 -0.27499086 0.14228581 0.058922213 -0.11629252 0.20926055 0.15138292 0.10214365 -0.026567234 -0.21295527 -0.24252118 -0.2074574 -0.43449053 0.15081191 0.11357784 -0.06613395 -0.031433478 0.20474754 -0.2968862 0.048012126 -0.2602398 -0.044805493 0.019462172 0.16291621 0.12334679 -0.48723322 0.04555294 0.31732184 -0.0645306 0.24556644 0.195163 -0.10261257 0.12708993 -0.07855569 -0.20353672 0.07306731 0.1863498 -0.08272377 0.24503575 -0.22373231 -0.070535816 0.03349929 0.17153312
102 0.42291355 -0.015813855 0.036973074 0.098268054 0.12210353 0.53958255 -0.08234825 -0.101026624 -0.15245257 -0.21329786 0.14451133 -0.10246228 0.10237126 -0.0147764 0.2849386 -0.09209052 0.11359416 0.29023212 -0.14757991 -0.034543358 0.0400197 -0.023143616 0.01795356 0.02636602 -0.2846989 -0.25931522 -0.19195712 -0.37957543 -0.30345714 -0.36985946 0.25028086 0.074956216 -0.12440544 0.26296917 0.05156981 -0.35795364 0.067007385 -0.26893675 -0.2113574 -0.11181965 0.20394339 0.11642364 -0.34424472 -0.091759086 0.15259802 -0.09447946 0.35244694 0.102936655 -0.13923252 -0.08139423 0.05381407 -0.17423664 -0.045286205 0.024073679 -0.27682725 0.47722918 -0.06188497 -0.30224162 0.121840365 0.013801212
534 0.2249515 0.055999994 -0.10862491 0.05492263 0.34990516 -0.115281194 -0.18623021 -0.058854632 0.078535214 -0.089625664 -0.12739687 -0.10873196 -0.07164057 -0.24261655 0.21671271 -0.14047427 0.07825354 -0.17493832 -0.19097686 0.07975662 -0.049020264 0.05914361 0.115186065 -0.110173464 -0.07250248 -0.3389024 -0.24777609 -0.35859397 -0.096276686 -0.3179458 0.30168986 -0.011883855 0.0068097916 0.18502636 0.021098617 -0.5252433 0.14944445 -0.42156205 0.09756437 0.10429599 0.16346632 0.13368191 -0.5063024 0.11656145 0.12410701 -0.3125069 0.22056757 -0.07741227 0.016907372 0.124432184 0.017684652 -0.15275432 0.013575588 0.37315008 -0.22669823 0.3898812 -0.11896004 -0.39658314 0.18778905 0.1892759
176 0.1622736 -0.062218387 0.0011920384 0.0648744 0.05649544 -0.18285911 0.019428676 0.11197815 0.1383194 -0.17452464 -0.13266069 -0.22437479 0.3824157 0.31236392 0.4968087 0.12842461 -0.044872798 -0.47809735 -0.09614853 -0.14741151 0.08510231 0.11823892 0.06519605 0.051018663 -0.43683887 0.28632614 -0.14097041 -0.10409664 0.016911834 -0.16070212 -0.105426595 -0.5210804 0.41831452 -0.063141696 -0.18886423 -0.06937976 -0.13627875 0.05771 -0.17021152 0.025772106 0.22822493 0.14889564 -0.3587731 -0.20509605 0.47344184 0.058043607 0.10648943 0.40355638 -0.28865018 -0.12346106 -0.08235659 0.02922738 0.04214326 -0.09453192 -0.07692242 0.2274469 -0.30718613 0.2483072 0.34343535 -0.25064772
241 -0.06966298 0.040693834 0.013138505 -0.28047183 0.2775924 -0.16185461 0.009078835 -0.1933856 0.22229737 -0.24889112 -0.22013731 0.21073496 -0.037923224 0.4034029 0.29270408 -0.3164224 -0.07832274 0.073755264 0.13392754 0.16004889 0.035101466 -0.21730575 0.36267927 0.32267177 -0.2535788 0.053625 -0.053705063 -0.09120425 -0.15955915 0.031311035 0.06077587 0.0696631 0.10718619 -0.113362394 0.35189545 -0.21509528 0.39497757 0.043210395 -0.13854416 -0.08125392 -0.03796619 0.23629186 -0.20085262 -0.35121232 0.06285724 0.35072413 0.40967909 -0.13687436 0.2105214 -0.07479859 0.22354698 -0.34568867 -0.07428136 0.21574572 0.034614883 0.32456002 -0.33932564 -0.1554047 0.4053553 -0.12236209
